{"learner":{"attributes":{"scikit_learn":"{\"_estimator_type\": \"classifier\"}"},"feature_names":["bank_id","api_version","connectivity_type","total_duration","authorized_duration"],"feature_types":["c","c","c","float","float"],"gradient_booster":{"model":{"gbtree_model_param":{"num_parallel_tree":"1","num_trees":"100"},"iteration_indptr":[0,1,2,3,4,5,6,7,8,9,10,11,12,13,14,15,16,17,18,19,20,21,22,23,24,25,26,27,28,29,30,31,32,33,34,35,36,37,38,39,40,41,42,43,44,45,46,47,48,49,50,51,52,53,54,55,56,57,58,59,60,61,62,63,64,65,66,67,68,69,70,71,72,73,74,75,76,77,78,79,80,81,82,83,84,85,86,87,88,89,90,91,92,93,94,95,96,97,98,99,100],"tree_info":[0,0,0,0,0,0,0,0,0,0,0,0,0,0,0,0,0,0,0,0,0,0,0,0,0,0,0,0,0,0,0,0,0,0,0,0,0,0,0,0,0,0,0,0,0,0,0,0,0,0,0,0,0,0,0,0,0,0,0,0,0,0,0,0,0,0,0,0,0,0,0,0,0,0,0,0,0,0,0,0,0,0,0,0,0,0,0,0,0,0,0,0,0,0,0,0,0,0,0,0],"trees":[{"base_weights":[4.5759648E-1,1.1892811E0,-1.2102373E-1,3.622077E-1,1.1583567E0,1.0188005E0,-5.772847E0,1.1618044E0,2.104922E-2,1.050613E0,2.7284634E-1,-3.2620513E0,-5.8210692E0,1.1695715E0,8.828181E-1,7.6702577E-1,-1.7167059E0,7.4420536E-1,1.1122565E0,3.7299138E-1,-4.5160297E-1,-1.3186469E0,-4.4423494E0,-1.7033392E0,-1.7467444E0,1.1843729E0,1.1448436E0,8.953832E-1,-2.6671124E-1,3.6099482E-1,5.033552E-1,-3.456022E0,-1.05892666E-1,8.03478E-1,6.739033E-1,1.1604624E0,1.0363004E0,5.3446305E-1,-2.2541204E-1,-3.707015E-1,-1.3126283E0,3.5859203E-1,-1.4927336E0,3.6045346E-1,-4.941652E0,3.612848E-1,3.5484102E-1,3.4537727E-1,3.4251896E-1,2.7897277E-1,1.9617903E-1,2.3618768E-1,1.2312841E-1,-6.826458E-1,-1.3460605E0,3.334967E-1,2.3945327E-1,2.0293471E-1,-4.4410974E-1,3.5076925E-1,3.3894384E-1,3.1539178E-1,2.622784E-1,1.8550368E-1,7.1460545E-2,-3.26197E-1,-1.4625718E-2,-2.9012343E-1,2.6797863E-2,-3.0801916E-1,-1.2487954E0,-1.3281316E0,-1.7447209E0],"categories":[2,0,0,1,2,0,1,3,4,5,7,8,10,11,12,13,14,15,16,17,18,19,20,21,23,26,28,29,31,34,36,37,38,39,41,42,43,44,45,46,47,49,51,57,58,59,62,64,66,67,68,70,73,76,78,79,81,83,86,87,88,89,90,91,92,94,96,97,101,102,103,104,106,109,110,111,112,113,114,115,116,118,119,121,123,124,127,128,131,132,135,136,137,139,140,141,142,145,147,148,149,150,151,152,153,154,155,156,157,158,160,162,164,165,166,170,172,173,175,177,178,0,1,3,4,5,6,7,8,9,11,12,13,14,15,16,17,18,19,20,21,22,23,24,25,27,28,30,31,34,35,37,38,39,40,41,42,43,44,45,46,47,48,49,51,52,53,54,55,56,57,60,61,62,63,64,65,66,68,69,70,71,73,75,76,78,79,81,82,83,84,86,87,88,89,90,91,92,93,94,95,96,97,98,99,100,101,102,103,104,105,106,107,108,109,110,111,112,113,115,116,117,118,119,121,122,123,124,125,126,127,128,129,131,132,134,135,136,137,138,139,140,141,142,143,144,145,147,148,149,150,152,153,154,155,156,157,158,159,160,162,164,165,166,168,171,172,173,175,177,178,0,1,2,3,4,5,6,7,8,9,10,11,12,13,14,15,16,17,18,19,20,21,22,23,24,25,26,27,28,29,31,32,33,34,35,36,37,38,39,40,41,42,43,44,45,46,47,48,49,50,51,52,53,54,55,56,57,58,59,60,61,62,63,64,65,66,67,68,69,70,71,72,73,74,75,76,77,78,79,80,81,82,83,84,85,86,87,88,89,90,91,92,93,94,95,96,97,98,99,101,102,103,104,106,107,108,109,110,111,112,113,114,115,116,117,118,119,120,121,122,123,124,125,126,127,128,129,130,131,132,133,134,135,136,137,138,139,140,141,142,143,144,145,146,147,148,149,150,151,152,153,154,155,156,157,158,159,160,161,162,163,164,165,166,167,168,169,170,171,172,173,174,175,176,177,178,0,2,3,4,5,6,7,8,9,10,11,12,13,14,15,16,17,18,19,20,21,22,24,25,26,27,28,30,32,33,34,35,37,38,39,40,41,43,44,45,57,92,101,114,141,147,156,165,170,175,0,3,2,6,9,15,19,22,23,24,29,30,32,33,35,36,41,43,46,50,52,54,55,56,57,58,63,65,68,70,71,72,74,77,80,83,84,85,87,93,99,100,101,103,105,107,108,120,121,125,128,130,133,138,143,144,146,147,161,163,165,167,169,174,176,0,1,3,4,5,6,7,8,9,11,12,13,14,15,16,17,18,19,20,21,22,23,24,25,27,28,30,31,33,34,35,37,38,39,40,41,42,43,44,45,46,47,48,49,51,52,53,54,55,56,57,60,61,62,63,64,65,66,68,69,70,71,73,74,75,76,77,78,79,81,82,83,84,86,87,88,89,90,91,92,93,94,95,96,97,98,99,100,101,102,103,104,105,106,107,108,109,110,111,112,113,115,116,117,118,119,121,122,123,124,125,126,127,128,129,130,131,132,134,135,136,137,138,139,140,141,142,143,144,145,147,148,149,150,152,153,154,155,156,157,158,159,160,161,162,163,164,165,166,167,168,171,172,173,175,177,178,13,0,1,2,3,4,5,6,7,8,9,10,11,12,13,14,15,16,17,18,19,20,21,22,23,24,25,26,27,28,29,30,31,32,33,34,35,36,37,38,39,40,41,42,43,44,45,46,47,48,49,50,51,52,53,54,55,56,57,58,59,60,61,62,63,64,65,66,67,68,69,70,71,72,73,74,75,76,77,78,79,80,81,82,83,84,85,86,87,88,89,90,91,92,93,94,95,96,97,98,99,101,102,103,104,105,106,107,108,109,110,111,112,113,114,115,116,117,118,119,120,121,122,123,124,125,126,127,128,129,130,131,132,133,134,135,136,137,138,139,140,141,142,143,144,145,146,147,148,149,150,151,152,153,154,155,156,157,158,159,160,161,162,163,164,165,166,167,168,169,170,171,172,173,174,175,176,177,178,5,99,0,1,3,4,5,6,7,8,9,10,11,12,13,14,15,16,17,18,19,20,21,22,23,24,25,26,27,28,29,30,31,33,34,35,36,37,38,39,40,41,42,43,44,45,46,47,48,49,50,51,53,54,55,56,57,58,59,60,61,62,63,64,65,66,67,68,69,70,71,72,73,74,75,76,77,78,79,80,81,82,83,84,86,87,88,89,90,91,92,93,94,95,96,97,98,99,100,101,102,103,104,105,106,107,108,109,110,111,112,113,114,115,116,117,118,119,120,121,122,123,124,125,126,127,128,129,130,131,132,133,134,135,136,137,138,139,140,141,142,143,144,145,146,147,148,149,150,151,152,153,154,155,156,157,158,159,160,162,163,164,165,166,168,169,170,171,172,173,174,175,176,177,178,0,1,2,3,4,5,7,8,10,11,12,13,14,15,16,17,18,19,20,21,23,26,28,29,31,32,34,36,37,38,39,41,42,43,44,45,46,47,49,50,51,52,57,58,59,62,64,66,67,68,70,72,73,76,78,79,81,83,84,86,87,88,89,90,91,92,93,94,96,97,100,101,102,103,104,106,109,110,111,112,113,114,115,116,117,118,119,121,122,123,124,127,128,130,131,132,134,135,136,137,139,140,141,142,145,146,147,148,149,150,151,152,153,154,155,156,157,158,159,160,161,162,163,164,165,166,168,170,172,173,174,175,177,178,4,0,1,2,3,4,5,6,7,8,9,10,11,12,13,14,15,16,17,18,19,20,21,22,23,24,25,26,27,28,29,30,31,32,33,34,35,36,37,38,39,40,41,42,43,44,45,46,47,48,49,50,51,52,53,54,55,56,57,58,59,60,61,62,63,64,65,66,67,68,69,70,71,72,73,74,75,76,77,78,79,80,81,82,83,84,85,86,87,88,89,90,91,92,93,94,95,96,97,98,100,101,102,103,104,105,106,107,108,109,110,111,112,113,114,115,116,117,118,119,120,121,122,123,124,125,126,127,128,129,130,131,132,133,134,135,136,137,138,139,140,141,142,143,144,145,146,147,148,149,150,151,152,153,154,155,156,157,158,159,160,161,162,163,164,165,166,167,168,169,170,171,172,173,174,175,0,1,2,3,4,5,6,7,8,9,10,11,12,13,14,15,16,17,18,19,20,21,22,23,24,25,26,27,28,29,31,32,33,34,35,36,37,38,39,40,41,42,43,44,45,46,47,48,49,50,51,52,53,54,55,56,57,58,59,60,61,62,63,64,65,66,67,68,69,70,71,72,73,74,75,76,77,78,79,80,81,82,83,84,85,86,87,88,89,90,91,92,93,94,95,96,97,98,99,100,101,102,103,104,105,106,107,108,109,110,111,112,113,114,115,116,117,118,119,120,121,122,123,124,125,126,127,128,129,130,131,132,133,134,135,136,137,138,139,140,141,142,143,144,145,146,147,148,149,150,151,152,153,154,155,156,157,158,159,160,161,162,163,164,165,166,167,168,169,170,171,172,173,174,175,176,177,178,0,1,2,3,4,5,6,7,8,9,10,11,12,13,14,15,16,17,18,19,20,21,22,23,24,25,27,28,30,31,32,33,34,35,37,38,39,40,41,42,43,44,45,46,47,48,49,51,52,53,54,55,56,57,60,61,62,63,64,65,66,68,69,70,71,73,74,75,76,77,78,79,80,81,82,83,84,85,86,87,88,89,90,91,92,93,94,95,96,97,98,99,100,101,102,103,104,105,106,107,108,109,110,111,112,113,115,116,117,118,119,121,122,123,124,125,126,127,128,129,130,131,132,133,134,135,136,137,138,139,140,141,142,143,144,145,147,148,149,150,152,153,154,155,156,157,158,159,160,161,162,163,164,165,166,167,168,171,172,173,175,176,177,178,0,1,2,3,4,5,6,7,8,9,10,11,12,13,14,15,16,17,18,19,20,21,22,23,24,25,26,27,28,29,30,31,32,34,35,36,37,38,39,40,41,42,43,44,45,46,47,48,49,50,51,52,53,54,55,56,57,58,59,60,61,62,63,64,65,66,67,68,69,70,71,72,73,74,75,76,77,78,79,80,81,82,83,84,85,86,87,88,89,90,91,92,93,94,95,96,97,98,99,100,101,102,103,104,105,106,107,108,109,110,111,112,113,114,115,116,117,118,119,120,121,122,123,124,125,126,127,128,129,130,131,132,133,134,135,136,137,138,139,140,141,142,143,144,145,146,147,148,149,150,151,152,153,154,155,156,157,158,159,160,162,164,165,166,168,169,170,171,172,173,174,175,176,177,178,0,1,2,3,4,5,6,7,8,9,10,11,12,13,14,15,16,17,18,19,20,21,22,23,24,25,26,27,28,29,30,31,32,33,34,35,36,37,38,39,40,41,42,43,44,45,46,47,48,49,50,51,52,53,54,55,57,58,59,60,61,62,63,64,65,66,67,68,69,70,71,72,73,74,75,76,77,78,79,80,81,82,83,84,85,86,87,88,89,90,91,92,93,94,95,96,97,98,99,100,101,102,103,104,105,106,107,108,109,110,111,112,113,114,115,116,117,118,119,120,121,122,123,124,125,126,127,128,129,130,131,132,133,134,135,136,137,139,140,141,142,143,144,145,146,147,148,149,150,151,152,153,154,155,156,157,158,159,160,161,162,163,164,165,166,167,168,169,170,171,172,173,174,175,176,177,178,0,1,2,3,4,5,6,7,8,9,10,11,12,13,14,15,16,17,18,19,20,21,22,23,24,25,26,27,28,29,30,31,32,33,34,35,36,37,38,39,40,41,42,43,44,45,46,47,48,49,50,51,52,53,54,55,56,57,58,59,60,61,62,63,64,65,66,67,68,69,70,71,72,73,74,75,76,77,78,79,80,81,82,83,84,85,86,87,88,89,90,91,92,93,94,95,96,97,98,99,100,101,102,103,104,106,107,108,109,110,111,112,113,114,115,116,117,118,119,120,121,122,123,124,125,126,127,128,129,130,131,132,133,134,135,136,137,138,139,140,141,142,143,144,145,146,147,148,149,150,151,152,153,154,155,156,157,158,159,160,161,162,163,164,165,166,167,168,169,170,171,172,173,174,175,176,177,178,0,1,2,3,4,5,6,7,8,9,10,11,12,13,14,15,16,17,18,19,20,21,22,23,24,25,26,27,28,29,30,31,32,33,34,35,36,37,38,39,40,41,42,43,44,45,46,47,48,49,50,51,52,53,54,55,56,57,58,59,0,1,2,3,4,5,6,7,8,9,10,11,12,13,14,15,16,17,18,19,20,21,22,23,24,25,26,27,28,29,30,31,32,33,34,35,36,37,38,39,40,41,42,43,44,45,46,47,48,49,50,51,53,54,55,56,57,58,59,60,61,62,63,64,65,66,67,68,69,70,71,72,73,74,75,76,77,78,79,80,81,82,83,84,85,86,87,88,89,90,91,92,93,94,95,96,97,98,99,100,101,102,103,104,105,106,107,108,109,110,111,112,113,114,115,116,117,118,119,120,121,122,123,124,125,126,127,128,129,130,131,132,133,134,135,136,137,138,139,140,141,142,143,144,145,146,147,148,149,150,151,152,153,154,155,156,157,158,159,160,162,163,164,165,166,167,168,169,170,171,172,173,174,175,176,177,178,0,1,2,3,4,5,6,7,8,9,10,11,12,13,14,15,16,17,18,19,20,21,22,23,24,25,26,27,28,29,30,31,32,34,35,36,37,38,39,40,41,42,43,44,45,46,47,48,49,50,51,52,53,54,55,56,57,58,59,60,61,62,63,64,65,66,67,68,69,70,71,72,73,74,75,76,78,79,81,82,83,84,85,86,87,88,89,90,91,92,93,94,95,96,97,98,99,100,101,102,103,104,105,106,107,108,109,110,111,112,113,114,115,116,117,118,119,120,121,0,1,2,3,4,5,7,8,10,11,12,13,14,15,16,17,18,19,20,21,23,26,28,29,31,32,34,36,37,38,39,41,42,43,44,45,46,47,49,50,51,52,56,57,58,59,62,64,66,67,68,70,72,73,76,78,79,81,83,84,86,87,88,89,90,91,92,93,94,96,97,99,100,101,102,103,104,106,108,109,110,111,112,113,114,115,116,117,118,119,121,122,123,124,125,127,128,130,131,132,134,135,136,137,139,140,141,142,145,146,147,148,149,150,151,152,153,154,155,156,157,158,159,160,161,162,163,164,165,166,168,169,170,172,173,174,175,176,177,178,0,2,3,4,5,6,7,8,9,10,11,12,13,14,15,16,17,18,19,20,21,22,24,25,26,27,28,30,32,33,34,35,37,38,39,40,41,43,44,45,46,47,48,49,50,51,52,53,54,55,56,57,60,61,62,63,64,65,68,69,70,71,72,73,74,75,76,77,78,79,80,81,82,83,84,85,86,87,88,89,90,92,93,94,95,96,97,98,99,100,101,102,103,104,105,106,107,108,109,110,111,112,113,114,115,116,117,118,120,121,122,123,124,125,126,127,128,129,130,131,132,133,134,135,136,137,138,140,141,142,143,144,145,146,147,148,149,150,151,152,153,154,155,156,157,158,159,160,161,162,163,164,165,167,168,169,170,171,172,173,174,175,176,177,178,1,93,128],"categories_nodes":[0,1,4,5,7,8,10,11,12,13,14,15,16,17,18,19,21,22,25,26,27,30,31,33,34,35,37,42,44],"categories_segments":[0,1,2,5,121,271,447,497,499,562,719,720,898,900,1073,1207,1208,1383,1561,1725,1900,2077,2255,2315,2492,2611,2751,2916,2917],"categories_sizes":[1,1,3,116,150,176,50,2,63,157,1,178,2,173,134,1,175,178,164,175,177,178,60,177,119,140,165,1,2],"default_left":[1,1,0,0,0,0,0,0,0,0,1,1,1,0,1,0,1,0,0,1,0,0,0,0,0,0,0,0,0,0,0,1,0,0,0,0,0,0,0,0,0,0,1,0,1,0,0,0,0,0,0,0,0,0,0,0,0,0,0,0,0,0,0,0,0,0,0,0,0,0,0,0,0],"id":0,"left_children":[1,3,5,-1,7,9,11,13,15,17,19,21,23,25,27,29,31,33,35,37,39,41,43,-1,-1,45,47,49,-1,-1,51,53,-1,55,57,59,61,63,65,67,-1,-1,69,-1,71,-1,-1,-1,-1,-1,-1,-1,-1,-1,-1,-1,-1,-1,-1,-1,-1,-1,-1,-1,-1,-1,-1,-1,-1,-1,-1,-1,-1],"loss_changes":[1.9568566E4,1.13828125E1,1.6627238E5,0E0,2.9527344E1,5.0969727E2,5.240781E2,1.6248047E1,2.9556667E1,3.8908008E2,6.3742683E1,1.8722028E2,2.03125E-1,2.6464844E0,4.5451813E0,1.8228378E0,1.62186E1,1.4366333E1,6.276758E1,7.4584465E1,3.3840836E1,1.35539055E1,1.4328271E2,0E0,0E0,1.1376953E-1,2.7832031E-2,1.671814E0,0E0,0E0,2.5671697E-1,3.4547806E0,0E0,3.039795E0,8.676331E0,2.7929688E0,1.6171387E1,1.510289E1,2.4975567E1,2.86916E1,0E0,0E0,3.5867188E1,0E0,2.0477417E1,0E0,0E0,0E0,0E0,0E0,0E0,0E0,0E0,0E0,0E0,0E0,0E0,0E0,0E0,0E0,0E0,0E0,0E0,0E0,0E0,0E0,0E0,0E0,0E0,0E0,0E0,0E0,0E0],"parents":[2147483647,0,0,1,1,2,2,4,4,5,5,6,6,7,7,8,8,9,9,10,10,11,11,12,12,13,13,14,14,15,15,16,16,17,17,18,18,19,19,20,20,21,21,22,22,25,25,26,26,27,27,30,30,31,31,33,33,34,34,35,35,36,36,37,37,38,38,39,39,42,42,44,44],"right_children":[2,4,6,-1,8,10,12,14,16,18,20,22,24,26,28,30,32,34,36,38,40,42,44,-1,-1,46,48,50,-1,-1,52,54,-1,56,58,60,62,64,66,68,-1,-1,70,-1,72,-1,-1,-1,-1,-1,-1,-1,-1,-1,-1,-1,-1,-1,-1,-1,-1,-1,-1,-1,-1,-1,-1,-1,-1,-1,-1,-1,-1],"split_conditions":[NaN,NaN,8.13E2,3.622077E-1,NaN,NaN,1.8534E4,NaN,NaN,8E0,NaN,NaN,NaN,NaN,NaN,NaN,NaN,NaN,NaN,NaN,3.01E2,NaN,NaN,-1.7033392E0,-1.7467444E0,NaN,NaN,NaN,-2.6671124E-1,3.6099482E-1,NaN,NaN,-1.05892666E-1,NaN,NaN,NaN,6.9E1,NaN,3.5E1,5.6E1,-1.3126283E0,3.5859203E-1,NaN,3.6045346E-1,NaN,3.612848E-1,3.5484102E-1,3.4537727E-1,3.4251896E-1,2.7897277E-1,1.9617903E-1,2.3618768E-1,1.2312841E-1,-6.826458E-1,-1.3460605E0,3.334967E-1,2.3945327E-1,2.0293471E-1,-4.4410974E-1,3.5076925E-1,3.3894384E-1,3.1539178E-1,2.622784E-1,1.8550368E-1,7.1460545E-2,-3.26197E-1,-1.4625718E-2,-2.9012343E-1,2.6797863E-2,-3.0801916E-1,-1.2487954E0,-1.3281316E0,-1.7447209E0],"split_indices":[1,1,4,0,2,0,4,0,0,4,0,2,0,0,0,0,0,0,0,2,4,0,0,0,0,0,0,0,0,0,0,0,0,0,0,0,4,0,4,4,0,0,2,0,0,0,0,0,0,0,0,0,0,0,0,0,0,0,0,0,0,0,0,0,0,0,0,0,0,0,0,0,0],"split_type":[1,1,0,0,1,1,0,1,1,0,1,1,1,1,1,1,1,1,1,1,0,1,1,0,0,1,1,1,0,0,1,1,0,1,1,1,0,1,0,0,0,0,1,0,1,0,0,0,0,0,0,0,0,0,0,0,0,0,0,0,0,0,0,0,0,0,0,0,0,0,0,0,0],"sum_hessian":[4.62212E4,2.0410904E4,2.5810295E4,1.2880467E4,7.5304385E3,2.1478635E4,4.331659E3,7.507678E3,2.2760025E1,2.0600098E4,8.785369E2,8.165159E1,4.250008E3,7.3042607E3,2.0341771E2,1.5932016E1,6.828007E0,3.4502773E3,1.714982E4,7.718493E2,1.06687614E2,3.0868282E1,5.0783302E1,4.2248295E1,4.2077593E3,4.568648E3,2.7356125E3,2.0199521E2,1.4225016E0,5.9745064E0,9.957511E0,2.9872532E0,3.840754E0,1.8718698E3,1.5784077E3,1.0491233E4,6.6585874E3,6.078349E2,1.6401442E2,1.0455386E2,2.1337523E0,1.991502E0,2.8876781E1,4.125254E0,4.665805E1,3.327231E2,4.235925E3,8.9162396E2,1.8439886E3,1.7667468E2,2.5320526E1,2.4182525E0,7.539258E0,1.4225016E0,1.5647516E0,3.1579533E1,1.8402902E3,1.5765585E3,1.849252E0,8.156908E3,2.334325E3,6.0941387E3,5.644486E2,4.73693E2,1.3414189E2,2.788103E1,1.3613339E2,4.552005E1,5.9033813E1,2.4609276E1,4.2675047E0,2.9445782E1,1.7212269E1],"tree_param":{"num_deleted":"0","num_feature":"5","num_nodes":"73","size_leaf_vector":"1"}},{"base_weights":[4.9069571E-1,8.113526E-1,-1.5502414E0,-3.9371088E0,8.4278667E-1,1.1424133E0,-1.6885366E0,-1.4691099E0,-5.6248612E0,1.1294489E0,6.126253E-1,3.4376544E-1,1.096676E0,2.1549474E-1,-1.8249152E0,-2.678645E0,-4.2058777E-2,-6.6039133E0,-3.0314016E0,-7.183272E0,1.1348927E0,9.8298997E-1,-5.524258E-1,3.4439534E-1,7.1783885E-2,5.349871E-1,-4.012855E0,-1.2498808E0,-1.839673E0,-2.0847015E0,-2.3192987E0,1.8455656E-1,-2.2529767E0,-5.3904867E0,-6.855267E0,-5.518589E-1,-2.298886E0,-7.4483867E0,-1.4052932E0,8.9899886E-1,1.1365662E0,1.0176237E0,1.2705258E-1,7.314786E-1,-9.0382624E-1,-4.8000817E0,-3.1490617E0,9.003298E-1,-1.9865501E0,-1.2012457E0,-1.8404651E0,-5.5363107E-1,-1.4680616E0,1.0198435E-1,-6.441779E-1,-2.064994E0,-1.3924266E0,-2.0012674E0,-2.1285474E0,-2.313641E0,-2.0966387E0,3.375718E-1,-1.2518474E0,3.4330484E-1,3.370563E-1,1.7055169E-1,3.0867943E-1,7.354927E-2,-2.0491555E-1,3.3694082E-1,1.450312E-1,-4.3877366E-1,-7.889013E-2,-1.2507424E0,-1.6983614E0,3.5388705E-1,-1.1725023E0,3.7718058E-1,2.4167703E-1,2.7092123E-1,-6.5450335E-1,-5.5986655E-1,3.9428756E-1,-5.1099235E-1,-5.5224466E-1],"categories":[2,2,30,33,77,80,85,130,163,167,176,2,0,1,3,4,5,6,7,8,9,10,11,12,13,14,15,16,17,18,19,20,21,22,24,25,27,28,29,31,34,35,36,37,38,39,40,41,42,43,44,45,46,47,48,49,50,51,53,54,57,59,61,62,63,64,65,67,69,70,73,74,75,76,78,79,81,82,86,87,88,89,90,91,92,93,94,95,96,97,98,100,101,102,103,104,106,107,109,110,111,112,113,114,115,116,117,118,119,120,121,122,123,124,125,126,127,128,129,130,131,132,134,135,136,137,138,139,140,142,143,145,146,147,148,149,150,151,152,153,154,157,158,159,160,162,164,165,166,167,168,169,170,171,172,173,174,175,177,178,32,70,103,161,0,2,33,80,85,130,167,0,0,1,3,4,5,7,8,10,11,12,13,14,15,16,17,18,19,20,21,23,26,28,31,34,36,37,38,39,41,42,43,44,45,46,47,49,51,57,58,59,60,62,64,66,67,68,71,73,76,78,79,81,83,86,87,88,89,90,92,94,96,97,101,102,103,104,106,109,110,111,112,113,114,115,116,118,119,121,123,124,127,128,131,132,135,136,137,139,140,141,142,145,147,148,149,150,151,152,153,154,155,156,157,158,159,160,162,164,165,170,171,172,173,175,177,178,0,1,2,4,5,6,7,8,9,10,11,12,13,14,15,16,17,18,19,92,100,163,0,1,2,3,4,5,6,7,8,9,10,11,12,13,14,15,16,17,18,19,20,21,22,23,24,25,26,27,28,29,30,31,32,33,34,35,36,37,38,39,40,41,42,43,44,45,46,47,48,49,50,51,52,53,54,55,56,57,58,59,60,61,62,63,64,65,66,67,68,69,70,71,72,73,74,75,76,77,78,79,80,81,82,83,84,85,86,87,88,89,90,91,92,93,94,95,96,97,98,99,100,101,102,103,104,105,106,107,108,109,110,111,112,113,114,115,116,117,118,119,120,121,125,128,129,130,133,137,138,146,147,159,161,163,165,167,169,174,176,0,0,1,2,3,4,5,6,7,8,9,10,11,12,13,14,15,16,17,18,19,20,21,22,23,24,25,26,27,28,29,30,31,33,34,35,36,37,38,39,40,41,42,43,44,45,46,47,48,49,50,51,52,53,54,55,56,57,58,59,60,61,62,63,64,65,66,67,68,69,70,71,72,73,74,75,76,77,78,79,80,81,82,83,84,85,86,87,88,89,90,91,92,93,94,95,96,97,98,99,100,101,102,103,104,105,106,107,108,109,110,111,112,113,114,115,116,117,118,119,120,121,122,123,124,125,126,127,128,129,130,131,132,133,134,135,136,137,138,139,140,141,142,143,144,145,146,147,148,149,150,151,152,153,154,155,156,157,158,159,160,162,163,164,165,166,167,168,169,170,171,172,173,174,175,176,177,178,2,85,167,0,1,2,3,4,5,6,7,8,9,10,11,12,13,14,15,16,17,18,19,20,21,22,23,24,25,26,27,28,29,30,31,32,33,34,35,36,37,38,39,40,41,42,43,44,45,46,47,48,49,50,51,52,53,54,55,56,57,58,59,60,61,62,63,64,65,66,67,68,69,70,71,73,74,75,76,77,78,79,80,81,82,83,84,85,86,87,88,89,90,91,92,93,94,95,96,97,98,99,100,101,102,103,104,105,106,107,108,109,110,111,112,113,114,115,116,117,118,119,120,121,122,123,124,125,126,127,128,129,130,131,132,134,135,136,137,138,139,140,141,142,143,145,146,147,148,149,150,151,152,153,154,155,156,157,158,159,160,161,162,163,164,165,166,167,168,169,170,171,172,173,0,12,23,34,57,92,101,114,141,147,156,159,165,175,0,1,2,4,5,6,7,8,9,10,11,12,13,14,15,16,17,18,19,20,21,22,24,25,26,27,28,29,30,32,33,34,35,37,38,39,40,41,42,43,44,45,46,47,48,49,50,51,52,53,54,55,56,58,59,60,61,62,63,64,65,66,68,69,70,72,73,74,75,76,77,78,79,80,81,82,83,84,85,86,87,88,89,90,91,92,93,94,95,96,97,98,99,100,101,102,103,104,106,107,108,109,110,111,112,113,115,116,117,118,119,120,121,122,123,124,126,127,128,129,131,132,133,134,135,136,137,139,140,141,142,143,145,146,147,148,149,150,151,152,153,154,155,157,158,160,161,162,163,164,165,166,168,169,170,172,173,175,177,178,70,103,32,161,0,1,2,3,4,5,6,7,8,9,10,11,12,13,14,15,16,17,18,19,20,21,22,23,24,25,26,27,28,29,31,32,33,34,35,36,37,38,39,40,41,42,43,44,45,46,47,48,49,50,51,52,53,54,55,56,57,58,59,60,61,62,63,64,65,66,67,68,69,70,71,72,73,74,75,76,77,78,79,80,81,82,83,84,85,86,87,88,89,90,91,92,93,94,95,96,97,98,100,101,102,103,104,105,106,107,108,109,110,111,112,113,114,115,116,117,118,119,120,121,122,123,124,125,126,127,128,129,130,131,132,133,134,135,136,137,138,139,140,141,142,143,144,145,146,147,148,149,150,151,152,153,154,155,156,157,158,2,6,15,19,22,24,29,30,32,33,35,50,52,54,55,56,57,58,63,65,68,70,71,72,74,76,77,80,83,84,85,87,93,99,100,103,105,106,107,125,128,129,130,133,137,138,146,147,161,163,165,167,169,174,176],"categories_nodes":[2,3,4,5,13,16,17,18,21,25,28,30,31,34,39,40,42,43,45,46,48,50],"categories_segments":[0,1,11,12,160,164,165,171,172,288,310,449,450,627,630,801,802,815,975,977,979,1136],"categories_sizes":[1,10,1,148,4,1,6,1,116,22,139,1,177,3,171,1,13,160,2,2,157,55],"default_left":[0,0,1,1,1,0,0,0,0,0,0,0,0,1,0,0,1,1,1,0,0,0,0,0,0,1,0,0,0,0,1,0,0,0,1,0,0,0,0,0,1,0,1,0,0,1,1,0,0,0,1,0,0,0,0,0,0,0,0,0,0,0,0,0,0,0,0,0,0,0,0,0,0,0,0,0,0,0,0,0,0,0,0,0,0],"id":1,"left_children":[1,3,5,7,9,11,13,15,17,19,21,-1,23,25,27,29,31,33,35,37,39,41,-1,-1,-1,43,45,47,49,-1,51,53,-1,55,57,-1,-1,59,-1,61,63,65,67,69,71,73,75,77,79,81,83,-1,-1,-1,-1,-1,-1,-1,-1,-1,-1,-1,-1,-1,-1,-1,-1,-1,-1,-1,-1,-1,-1,-1,-1,-1,-1,-1,-1,-1,-1,-1,-1,-1,-1],"loss_changes":[2.6677725E4,5.258496E3,2.0611533E3,9.648745E2,2.3090742E3,1.7608643E-2,1.3670527E3,1.6245291E2,3.4893945E2,7.05459E2,1.764328E4,0E0,8.541622E-1,4.754273E2,4.164453E1,7.784805E1,7.313252E1,2.9716309E1,2.0806027E2,6.0597534E0,6.126953E0,4.999873E2,0E0,0E0,0E0,9.2515175E1,1.6508667E1,1.9484952E2,2.3779297E0,0E0,5.7172226E1,1.5212916E1,0E0,1.8626068E1,2.706543E0,0E0,0E0,3.338623E-2,0E0,1.2609882E2,1.5449219E0,8.231445E1,6.276591E1,2.795662E1,1.4073025E1,6.5336304E0,3.9028984E1,1.0413456E0,5.1694E1,1.0074265E1,1.6796875E-1,0E0,0E0,0E0,0E0,0E0,0E0,0E0,0E0,0E0,0E0,0E0,0E0,0E0,0E0,0E0,0E0,0E0,0E0,0E0,0E0,0E0,0E0,0E0,0E0,0E0,0E0,0E0,0E0,0E0,0E0,0E0,0E0,0E0,0E0],"parents":[2147483647,0,0,1,1,2,2,3,3,4,4,5,5,6,6,7,7,8,8,9,9,10,10,12,12,13,13,14,14,15,15,16,16,17,17,18,18,19,19,20,20,21,21,25,25,26,26,27,27,28,28,30,30,31,31,33,33,34,34,37,37,39,39,40,40,41,41,42,42,43,43,44,44,45,45,46,46,47,47,48,48,49,49,50,50],"right_children":[2,4,6,8,10,12,14,16,18,20,22,-1,24,26,28,30,32,34,36,38,40,42,-1,-1,-1,44,46,48,50,-1,52,54,-1,56,58,-1,-1,60,-1,62,64,66,68,70,72,74,76,78,80,82,84,-1,-1,-1,-1,-1,-1,-1,-1,-1,-1,-1,-1,-1,-1,-1,-1,-1,-1,-1,-1,-1,-1,-1,-1,-1,-1,-1,-1,-1,-1,-1,-1,-1,-1],"split_conditions":[3.33E2,3E0,NaN,NaN,NaN,NaN,8.13E2,2E0,8E0,8E0,8.11E2,3.4376544E-1,3.6726E4,NaN,1.8534E4,8E0,NaN,NaN,NaN,7E0,1.1E1,NaN,-5.524258E-1,3.4439534E-1,7.1783885E-2,NaN,3.055E3,8.29E2,NaN,-2.0847015E0,NaN,NaN,-2.2529767E0,2E0,NaN,-5.518589E-1,-2.298886E0,5E0,-1.4052932E0,NaN,NaN,4E0,NaN,NaN,4E1,NaN,NaN,8.14E2,NaN,9.01E2,NaN,-5.5363107E-1,-1.4680616E0,1.0198435E-1,-6.441779E-1,-2.064994E0,-1.3924266E0,-2.0012674E0,-2.1285474E0,-2.313641E0,-2.0966387E0,3.375718E-1,-1.2518474E0,3.4330484E-1,3.370563E-1,1.7055169E-1,3.0867943E-1,7.354927E-2,-2.0491555E-1,3.3694082E-1,1.450312E-1,-4.3877366E-1,-7.889013E-2,-1.2507424E0,-1.6983614E0,3.5388705E-1,-1.1725023E0,3.7718058E-1,2.4167703E-1,2.7092123E-1,-6.5450335E-1,-5.5986655E-1,3.9428756E-1,-5.1099235E-1,-5.5224466E-1],"split_indices":[3,3,1,0,1,0,4,3,4,3,4,0,3,0,4,4,1,0,1,3,3,0,0,0,0,0,3,3,0,0,1,0,0,3,0,0,0,3,0,0,1,3,0,0,4,0,0,3,0,3,0,0,0,0,0,0,0,0,0,0,0,0,0,0,0,0,0,0,0,0,0,0,0,0,0,0,0,0,0,0,0,0,0,0,0],"split_type":[0,0,1,1,1,1,0,0,0,0,0,0,0,1,0,0,1,1,1,0,0,1,0,0,0,1,0,0,1,0,1,1,0,0,1,0,0,0,0,1,1,0,1,1,0,1,1,0,1,0,1,0,0,0,0,0,0,0,0,0,0,0,0,0,0,0,0,0,0,0,0,0,0,0,0,0,0,0,0,0,0,0,0,0,0],"sum_hessian":[4.0764105E4,3.522917E4,5.534934E3,2.316616E2,3.4997508E4,2.70381E2,5.264553E3,9.409869E1,1.3756291E2,1.5585702E4,1.9411807E4,2.5085756E2,1.9523434E1,3.518754E2,4.9126777E3,5.092134E1,4.317735E1,9.9841095E1,3.772182E1,1.0182692E1,1.557552E4,1.6866348E4,2.5454592E3,1.8414606E1,1.1088282E0,3.2717194E2,2.4703463E1,1.22968834E2,4.789709E3,3.9238598E0,4.6997482E1,4.1924656E1,1.252691E0,1.7209763E1,8.2631325E1,3.0023617E1,7.698202E0,9.170129E0,1.0125618E0,1.0979289E2,1.5465727E4,1.6210424E4,6.5592444E2,2.8786902E2,3.9302925E1,1.2876749E1,1.1826713E1,3.1377829E1,9.1591E1,5.97307E0,4.783736E3,3.9720257E1,7.2772245E0,3.932143E1,2.6032255E0,5.6953173E0,1.1514446E1,4.704827E1,3.5583054E1,5.6255107E0,3.5446184E0,1.051194E2,4.6734924E0,9.685322E3,5.780404E3,3.981432E2,1.5812281E4,5.72473E2,8.3451416E1,1.11592834E2,1.7627618E2,2.0982721E1,1.8320204E1,7.4992046E0,5.3775444E0,1.7632384E0,1.0063475E1,6.529819E0,2.4848011E1,5.7890325E0,8.580197E1,4.72834E0,1.24473E0,1.2435046E1,4.771301E3],"tree_param":{"num_deleted":"0","num_feature":"5","num_nodes":"85","size_leaf_vector":"1"}},{"base_weights":[4.6096337E-1,7.605014E-1,-1.244321E0,1.0784758E0,5.224543E-1,1.0989565E0,-1.3464079E0,-1.7445836E0,1.0905272E0,-1.4094539E0,5.6023145E-1,3.3105215E-1,1.0437454E0,8.006492E-1,-1.3882456E0,-1.6696045E0,-2.0111752E0,8.452628E-1,1.0924304E0,-3.9179236E-1,-1.6256574E0,6.277452E-1,-4.9596243E-2,3.3124912E-1,5.3984076E-2,-8.6214703E-1,1.0957811E0,-5.350249E-1,-1.4462662E0,-1.7108706E0,-1.1364567E0,-7.581771E-1,-1.7822096E0,1.0662831E0,-9.8786294E-1,3.30721E-1,1.0758233E0,-1.5997435E0,2.0262478E-1,-1.4573345E0,-1.6852771E0,6.5606076E-1,9.74971E-2,-1.3092359E0,4.5285404E-2,-1.1852763E-1,-1.6792918E0,1.133967E0,7.971783E-1,-1.0838462E0,4.644062E-1,2.9767668E-1,-1.454165E0,-5.952471E-1,-5.0788116E-1,-5.22088E-2,-6.220159E-1,-5.0364393E-1,-6.0767555E-1,3.308048E-1,2.5054213E-1,4.4776532E-1,-5.4224396E-1,2.9595947E-1,3.2521266E-1,-4.47605E-1,-5.1808333E-1,3.0111903E-1,-5.8949017E-3,-4.644917E-1,-3.9149424E-1,-4.8642492E-1,-5.180771E-1,1.6763385E-1,2.1118861E-1,7.7502735E-2,-8.308746E-2,-2.6254E-1,-4.6397096E-1,4.3675512E-2,-2.5362062E-1,-2.6338524E-1,1.4952831E-1,-1.4395952E-1,-5.882225E-1,3.428254E-1,3.0946252E-1,1.3797823E-1,3.976537E-1,-1.7776075E-1,-4.6615034E-1,1.8572642E-1,-2.3226176E-1,2.0885189E-1,5.266924E-2,-2.2997418E-1,-4.4021764E-1],"categories":[2,2,0,1,3,4,5,6,7,8,9,10,11,12,13,14,15,16,17,18,19,20,21,22,24,25,27,28,29,31,34,35,36,37,38,39,40,41,42,43,44,45,46,47,48,49,50,51,53,54,57,59,61,62,63,64,65,66,67,69,70,73,74,75,76,78,79,81,82,86,87,88,89,90,91,92,93,94,95,96,97,98,100,101,102,103,104,106,107,109,110,111,112,113,114,115,116,117,118,119,120,121,122,123,124,125,126,127,128,129,130,131,132,134,135,136,137,138,139,140,142,143,145,146,147,148,149,150,151,152,153,154,157,158,159,160,162,164,165,166,167,168,169,170,171,172,173,174,175,177,178,0,1,2,3,4,5,6,7,8,9,10,11,12,13,14,15,16,17,18,19,20,21,22,24,25,26,27,28,29,30,32,33,34,35,37,38,39,40,41,42,43,44,45,46,47,48,49,50,51,52,53,54,55,56,57,58,59,60,61,62,63,64,65,66,67,68,69,70,71,72,73,74,75,76,77,78,79,80,81,82,83,84,85,86,87,88,89,90,91,92,93,94,95,96,97,98,99,100,101,102,103,104,105,106,107,108,109,110,111,112,113,115,116,117,118,119,120,121,123,124,125,126,127,128,129,130,131,132,133,134,135,136,137,138,139,140,142,143,145,146,147,148,149,150,151,152,153,154,155,157,158,160,161,162,163,164,165,166,167,169,174,175,176,32,56,133,2,30,33,41,43,52,55,56,58,74,77,80,85,93,121,130,138,163,167,176,0,1,3,4,5,6,7,8,9,10,11,12,13,14,15,16,17,18,19,20,21,22,23,26,28,29,31,34,35,36,37,38,39,40,41,42,43,44,45,46,47,49,50,51,53,54,55,56,57,58,60,62,64,65,66,67,68,69,70,71,73,76,78,79,81,83,84,86,87,88,89,90,91,92,93,94,95,96,97,99,100,101,102,103,104,105,106,109,110,111,112,113,114,115,116,118,119,120,121,122,123,124,127,128,129,131,132,135,136,137,139,140,141,142,145,147,148,149,150,151,152,153,154,155,156,157,158,159,160,162,164,165,166,170,171,172,173,175,177,178,0,1,2,3,4,5,6,7,8,9,10,11,12,13,14,15,16,17,18,19,20,21,22,23,24,25,26,27,28,29,30,31,32,33,34,35,36,37,38,39,40,41,42,43,44,45,46,47,48,49,50,51,52,53,54,55,56,57,58,59,60,61,62,63,64,65,66,67,68,69,70,71,73,74,75,76,77,78,79,80,81,82,83,84,85,86,87,88,89,90,91,92,93,94,95,96,97,98,99,100,101,102,103,104,105,106,107,108,109,110,111,112,113,114,115,116,117,118,119,120,121,122,123,124,125,126,127,128,129,130,131,132,134,135,136,137,138,139,140,141,142,143,145,146,147,148,149,150,151,152,153,154,155,156,157,158,159,160,161,162,163,164,165,166,167,168,169,170,171,172,173,0,2,74,77,80,85,130,167,31,114,122,159,0,1,2,3,4,5,6,7,8,9,10,11,12,13,14,15,16,17,18,19,20,21,22,24,25,26,27,28,29,30,32,33,34,35,36,37,38,39,40,41,42,43,44,45,46,47,48,49,50,51,52,53,54,55,56,57,58,59,60,61,62,63,64,65,66,67,68,69,70,71,72,73,74,75,76,77,78,79,80,81,82,83,84,85,86,87,88,89,90,91,92,93,94,95,96,97,98,99,100,101,102,103,104,105,106,107,108,109,110,111,112,113,115,116,117,118,119,120,121,123,124,125,126,127,128,129,130,131,132,133,134,135,136,137,138,139,140,141,142,143,145,146,147,148,149,150,151,152,153,154,155,157,158,160,161,162,163,164,165,166,167,168,169,170,172,173,174,175,176,177,178,0,1,2,4,5,0,1,2,3,4,5,6,7,8,9,10,11,12,13,14,15,16,17,18,19,20,21,22,23,24,25,26,27,28,29,30,31,32,33,34,35,36,37,38,39,40,41,42,43,44,45,46,47,48,49,50,51,52,53,54,55,56,57,58,59,60,61,62,63,64,65,66,67,68,69,70,71,72,73,74,75,76,77,78,79,80,81,82,83,84,85,86,87,88,89,90,91,92,93,94,95,96,97,98,99,100,101,102,103,104,105,106,107,108,109,110,111,112,113,114,115,116,117,118,119,120,121,122,123,124,125,126,127,128,129,130,131,132,133,134,135,136,137,163,176,0,1,2,3,4,5,6,7,8,9,10,11,12,13,14,15,16,17,18,19,20,21,22,23,24,25,26,27,28,29,30,31,32,33,130,0,0,32,0,1,2,3,4,5,6,7,8,9,10,11,12,13,14,15,16,17,18,19,20,21,22,23,24,25,26,27,28,29,30,31,32,33,34,35,36,37,38,39,40,41,42,43,44,45,46,47,48,49,50,51,52,53,54,55,56,57,58,59,60,61,62,63,64,65,66,67,68,69,70,71,72,73,74,75,76,77,78,79,80,81,82,83,84,85,86,87,88,89,90,91,92,93,94,95,96,97,98,99,100,101,102,103,104,105,106,107,108,109,110,111,112,113,114,115,116,117,118,119,120,121,122,123,124,125,126,127,128,129,130,131,132,133,134,135,136,137,138,139,140,141,142,143,144,145,146,147,148,149,150,151,152,153,154,155,156,157,158,159,160,162,163,164,165,166,167,168,169,170,171,172,173,174,175,176,177,178,74,80,85,167,0,1,3,4,5,6,7,8,9,10,11,12,13,14,15,16,17,18,19,20,21,22,23,25,26,27,32,33,52,72,77,130,138,161,23,34,43,55,56,70,84,87,93,100,103,105,128,147,8,12,19,23,34,46,57,68,83,87,92,101,105,113,114,121,141,147,155,159,165,177,0,1,2,3,4,5,6,7,8,9,10,11,12,13,14,15,16,17,18,19,20,21,22,24,25,26,27,28,29,30,32,33,34,35,36,37,38,39,40,41,42,43,44,45,46,47,48,49,50,51,52,53,54,55,56,57,58,59,60,61,62,63,64,65,66,67,68,69,70,71,72,73,74,75,76,77,78,79,80,81,82,83,84,85,86,87,88,89,90,91,92,93,94,95,96,97,98,99,100,101,102,103,104,105,106,107,108,109,110,111,112,113,115,116,117,118,119,120,121,122,123,124,125,126,127,128,129,130,131,132,133,134,135,136,137,138,139,140,141,142,143,145,146,147,148,149,150,151,152,153,154,155,157,158,160,161,162,163,164,165,166,167,168,169,170,172,173,174,175,176,177,178,0,1,2,3,4,0,1,2,3,4,5,6,7,8,9,10,11,12,13,14,15,16,17,18,19,20,21,22,23,24,25,26,27,28,29,30,31,32,33,34,35,36,37,38,39,40,41,42,43,44,45,46,47,48,49,50,51,52,53,54,55,56,57,59,60,61,62,63,64,65,66,67,68,69,70,71,72,73,74,75,76,77,78,79,80,81,82,83,84,85,86,87,88,89,90,91,92,93,94,95,96,97,98,99,100,101,102,103,104,105,106,107,108,109,110,111,112,113,114,115,116,117,118,119,120,121,122,123,124,125,126,127,128,129,130,131,132,133,134,135,136,137,138,139,140,141,142,143,144,145,146,147,148,149,150,151,152,153,154,155,156,157,158,159,160,161,162,163,164,165,166,167,168,169,170,171,172,173,174,175,176,177,178,0,1,2,3,4,5,6,7,8,9,10,11,12,13,14,15,16,17,18,19,20,21,22,23,24,25,26,27,28,29,30,31,32,33,34,35,36,37,38,39,40,41,42,43,44,45,46,47,48,49,50,51,52,53,54,55,56,58,59,60,61,62,63,64,65,66,67,68,69,70,71,72,73,74,75,76,77,78,79,80,81,82,83,84,85,86,87,88,89,90,91,92,93,94,95,96,97,98,99,100,101,102,103,104,105,106,107,108,109,110,111,112,113,114,115,116,117,118,119,120,121,122,123,124,125,126,127,128,129,130,131,132,133,135,136,137,138,139,140,141,142,143,144,145,146,147,148,149,150,151,152,153,154,155,156,157,158,159,160,161,162,163,164,165,166,167,168,169,170,171,172,173,174,175,176,177,178,2,6,15,19,22,24,29,30,32,33,43,50,52,54,56,57,58,63,65,68,70,72,74,76,77,80,84,85,87,93,103,106,107,125,128,129,130,133,134,137,146,147,161,163,165,167,169,174,176],"categories_nodes":[1,2,5,6,7,9,10,17,18,20,25,26,28,29,30,33,34,37,38,40,42,43,44,47,49,50,51,52],"categories_segments":[0,1,2,151,314,317,337,477,648,649,656,660,831,836,976,1011,1012,1013,1014,1192,1196,1230,1244,1266,1438,1443,1621,1798],"categories_sizes":[1,1,149,163,3,20,140,171,1,7,4,171,5,140,35,1,1,1,178,4,34,14,22,172,5,178,177,49],"default_left":[0,1,1,0,0,0,0,1,0,1,0,0,0,0,0,0,0,0,1,0,1,0,0,0,0,1,0,0,0,0,1,0,0,1,1,0,0,1,0,0,1,0,1,1,1,0,0,0,0,1,0,0,1,0,0,0,0,0,0,0,0,0,0,0,0,0,0,0,0,0,0,0,0,0,0,0,0,0,0,0,0,0,0,0,0,0,0,0,0,0,0,0,0,0,0,0,0],"id":2,"left_children":[1,3,5,7,9,11,13,15,17,19,21,-1,23,25,27,29,31,33,35,37,39,41,43,-1,-1,45,47,49,51,53,55,-1,57,59,61,-1,63,65,67,69,71,73,75,77,79,81,83,85,87,89,91,93,95,-1,-1,-1,-1,-1,-1,-1,-1,-1,-1,-1,-1,-1,-1,-1,-1,-1,-1,-1,-1,-1,-1,-1,-1,-1,-1,-1,-1,-1,-1,-1,-1,-1,-1,-1,-1,-1,-1,-1,-1,-1,-1,-1,-1],"loss_changes":[1.6815527E4,2.1195068E3,1.1766362E3,4.0789355E2,1.1687056E3,2.8381348E-2,4.2340234E2,9.512634E-1,5.553711E0,6.756268E1,6.4665674E2,0E0,8.313694E-1,4.4234795E1,2.2885059E2,8.386383E-1,1.2199135E0,3.7296883E1,1.9384766E0,3.866756E1,2.4926147E0,2.1231201E2,1.8710931E2,0E0,0E0,8.255321E0,8.5437775E-1,1.6148982E2,5.963867E1,1.1377716E-1,2.6310499E0,0E0,1.2666893E-1,6.722946E-1,2.0200249E1,0E0,3.2402344E0,1.9155121E-1,6.429266E0,8.7968445E-1,4.4085693E-1,6.2546875E1,4.317806E1,1.1271103E1,1.3006575E2,3.3531616E0,2.166666E0,3.7254333E-2,1.5457792E0,4.386502E1,2.0006193E1,9.4806993E-1,3.9168945E1,0E0,0E0,0E0,0E0,0E0,0E0,0E0,0E0,0E0,0E0,0E0,0E0,0E0,0E0,0E0,0E0,0E0,0E0,0E0,0E0,0E0,0E0,0E0,0E0,0E0,0E0,0E0,0E0,0E0,0E0,0E0,0E0,0E0,0E0,0E0,0E0,0E0,0E0,0E0,0E0,0E0,0E0,0E0,0E0],"parents":[2147483647,0,0,1,1,2,2,3,3,4,4,5,5,6,6,7,7,8,8,9,9,10,10,12,12,13,13,14,14,15,15,16,16,17,17,18,18,19,19,20,20,21,21,22,22,25,25,26,26,27,27,28,28,29,29,30,30,32,32,33,33,34,34,36,36,37,37,38,38,39,39,40,40,41,41,42,42,43,43,44,44,45,45,46,46,47,47,48,48,49,49,50,50,51,51,52,52],"right_children":[2,4,6,8,10,12,14,16,18,20,22,-1,24,26,28,30,32,34,36,38,40,42,44,-1,-1,46,48,50,52,54,56,-1,58,60,62,-1,64,66,68,70,72,74,76,78,80,82,84,86,88,90,92,94,96,-1,-1,-1,-1,-1,-1,-1,-1,-1,-1,-1,-1,-1,-1,-1,-1,-1,-1,-1,-1,-1,-1,-1,-1,-1,-1,-1,-1,-1,-1,-1,-1,-1,-1,-1,-1,-1,-1,-1,-1,-1,-1,-1,-1],"split_conditions":[3.33E2,NaN,NaN,8E0,3E0,NaN,NaN,NaN,1.1E1,NaN,NaN,3.3105215E-1,3.6726E4,3.055E3,9E2,6E0,2E0,NaN,NaN,2E0,NaN,9.3E1,1.9E1,3.3124912E-1,5.3984076E-2,NaN,NaN,8.04E2,NaN,NaN,NaN,-7.581771E-1,6E0,NaN,NaN,3.30721E-1,1.9E1,NaN,NaN,2E0,NaN,2.4E1,NaN,NaN,NaN,1.256E3,8.12E2,NaN,5.1237E4,NaN,NaN,NaN,NaN,-5.952471E-1,-5.0788116E-1,-5.22088E-2,-6.220159E-1,-5.0364393E-1,-6.0767555E-1,3.308048E-1,2.5054213E-1,4.4776532E-1,-5.4224396E-1,2.9595947E-1,3.2521266E-1,-4.47605E-1,-5.1808333E-1,3.0111903E-1,-5.8949017E-3,-4.644917E-1,-3.9149424E-1,-4.8642492E-1,-5.180771E-1,1.6763385E-1,2.1118861E-1,7.7502735E-2,-8.308746E-2,-2.6254E-1,-4.6397096E-1,4.3675512E-2,-2.5362062E-1,-2.6338524E-1,1.4952831E-1,-1.4395952E-1,-5.882225E-1,3.428254E-1,3.0946252E-1,1.3797823E-1,3.976537E-1,-1.7776075E-1,-4.6615034E-1,1.8572642E-1,-2.3226176E-1,2.0885189E-1,5.266924E-2,-2.2997418E-1,-4.4021764E-1],"split_indices":[3,1,1,3,3,0,0,0,3,0,0,0,3,3,3,3,3,0,1,3,0,3,3,0,0,0,0,3,2,0,0,0,3,1,1,0,3,0,0,3,0,3,0,0,0,3,3,0,3,2,0,0,0,0,0,0,0,0,0,0,0,0,0,0,0,0,0,0,0,0,0,0,0,0,0,0,0,0,0,0,0,0,0,0,0,0,0,0,0,0,0,0,0,0,0,0,0],"split_type":[0,1,1,0,0,1,1,1,0,1,1,0,0,0,0,0,0,1,1,0,1,0,0,0,0,1,1,0,1,1,1,0,0,1,1,0,0,1,1,0,1,0,1,1,1,0,0,1,0,1,1,1,1,0,0,0,0,0,0,0,0,0,0,0,0,0,0,0,0,0,0,0,0,0,0,0,0,0,0,0,0,0,0,0,0,0,0,0,0,0,0,0,0,0,0,0,0],"sum_hessian":[3.2920082E4,2.8001545E4,4.918539E3,1.1988147E4,1.6013396E4,2.0532655E2,4.713213E3,5.0946262E1,1.1937201E4,3.0711096E2,1.5706286E4,1.893389E2,1.5987671E1,9.007958E1,4.6231333E3,3.9876656E1,1.1069604E1,9.198304E1,1.1845219E4,5.382333E1,2.5328763E2,1.4140767E4,1.565519E3,1.4937244E1,1.0504258E0,1.3572476E1,7.65071E1,2.9437747E2,4.328756E3,3.697073E1,2.9059262E0,3.339997E0,7.729607E0,8.209344E1,9.889605E0,7.4000054E3,4.445213E3,1.7739677E1,3.6083652E1,6.6382385E1,1.8690524E2,1.3423917E4,7.168498E2,1.0964372E2,1.4558754E3,7.1179767E0,6.4544997E0,6.778266E1,8.724443E0,1.9002611E2,1.0435138E2,1.9514368E1,4.309241E3,2.1412156E0,3.4829517E1,1.4452071E0,1.4607191E0,5.5360975E0,2.1935093E0,7.085901E1,1.1234429E1,2.4521425E0,7.437462E0,3.7488016E2,4.0703328E3,9.743425E0,7.9962516E0,7.822004E0,2.826165E1,4.1449028E1,2.4933357E1,7.409274E1,1.128125E2,4.4291475E3,8.99477E3,5.0145764E2,2.1539217E2,3.8789246E1,7.085448E1,1.3085387E3,1.473367E2,3.1868455E0,3.9311314E0,1.2370572E0,5.2174425E0,6.2240654E1,5.542003E0,5.34815E0,3.376294E0,9.2927795E1,9.7098305E1,9.277537E1,1.1576016E1,4.5550303E0,1.4959338E1,8.135475E1,4.2278867E3],"tree_param":{"num_deleted":"0","num_feature":"5","num_nodes":"97","size_leaf_vector":"1"}},{"base_weights":[4.0490973E-1,1.0456051E0,7.9597756E-2,3.2209396E-1,9.994589E-1,8.046618E-1,-1.3977402E0,1.0143756E0,6.073639E-1,8.4775877E-1,1.7141901E-1,-7.3209596E-1,-1.4094797E0,1.0363482E0,9.792894E-1,6.4776057E-1,-2.4172819E-1,5.5670726E-1,9.176726E-1,2.8767186E-1,-2.5963268E-1,3.4719235E-1,-8.300549E-1,-1.373767E0,-1.4213454E0,3.225978E-1,1.0337455E0,9.8138344E-1,-3.4668386E-1,9.901242E-1,6.116109E-1,-2.388643E-3,-1.1685373E-1,6.6422695E-1,5.1848304E-1,1.0042741E0,7.918858E-1,3.7476924E-1,-2.0730793E-1,-8.8116544E-1,-1.6251697E-1,-6.720939E-1,-1.2942533E0,-1.2756882E0,-1.3802081E0,-1.4164551E0,-1.4532698E0,3.116548E-1,3.0809185E-1,3.2195497E-1,2.9403988E-1,3.21701E-1,2.4829523E-1,1.973555E-1,8.858885E-2,2.647592E-1,1.9711208E-1,1.5609212E-1,-1.4557245E-1,3.1583038E-1,2.9654387E-1,2.529942E-1,1.9886324E-1,1.3554598E-1,3.2813024E-2,1.3696618E-1,-2.1033694E-1,3.9718494E-1,-3.004789E-1,6.2363267E-2,-6.6615984E-2,2.190364E-1,-2.0825246E-1,-3.0129892E-1,-3.925127E-1,2.233887E-1,-3.9579526E-1,-4.0571198E-1,-4.1768926E-1,-4.2279565E-1,-4.2677245E-1,-4.3426356E-1,-4.5744708E-1],"categories":[2,0,0,1,3,4,5,6,7,8,9,10,11,12,13,14,15,16,17,18,19,20,21,22,23,24,25,27,28,30,31,34,35,36,37,38,39,40,41,42,43,44,45,46,47,48,49,51,52,53,54,55,56,57,60,61,62,63,64,65,66,67,68,69,70,71,73,75,76,78,79,81,82,83,84,86,87,88,89,90,91,92,93,94,95,96,97,98,99,101,102,103,104,105,106,107,108,109,110,111,112,113,114,115,116,117,118,119,121,122,123,124,125,126,127,128,129,131,132,134,135,136,137,138,139,140,141,142,143,144,145,147,148,149,150,151,152,153,154,155,156,157,158,159,160,162,164,165,166,168,170,171,172,173,175,177,178,0,1,3,4,5,6,7,8,10,11,12,13,14,15,16,17,18,19,20,21,23,26,28,29,31,34,36,37,38,39,41,42,43,44,45,46,47,49,51,53,57,58,59,60,62,64,67,68,70,73,75,76,78,79,81,82,83,86,87,88,89,90,91,92,94,95,96,97,101,102,103,104,106,109,110,111,112,113,114,115,116,118,119,121,123,124,127,128,131,132,135,136,137,139,140,141,142,145,147,148,149,150,151,152,153,154,155,156,157,158,160,162,164,165,166,170,172,173,175,177,178,0,1,3,4,5,6,7,8,9,10,11,12,13,14,15,16,17,18,19,20,21,22,23,24,25,26,27,28,30,31,33,34,35,36,37,38,39,40,41,42,43,44,45,46,47,48,49,51,52,53,54,55,56,57,58,59,60,61,62,63,64,65,66,67,68,69,70,71,73,74,75,76,77,78,79,81,82,83,84,86,87,88,89,90,91,92,93,94,95,96,97,98,99,101,102,103,104,105,106,107,108,109,110,111,112,113,114,115,116,117,118,119,121,122,123,124,125,126,127,128,129,130,131,132,134,135,136,137,138,139,140,141,142,143,144,145,147,148,149,150,151,152,153,154,155,156,157,158,159,160,161,162,163,164,165,166,167,168,170,171,172,173,175,177,178,13,22,99,4,0,1,2,3,4,5,6,7,8,9,10,11,12,13,14,15,16,17,18,19,20,21,22,23,24,25,26,27,28,29,31,32,33,34,35,36,37,38,39,40,41,42,43,44,45,46,47,48,49,50,51,52,53,54,55,56,57,58,59,60,61,62,63,64,65,66,67,68,69,70,71,72,73,74,75,76,77,78,79,80,81,82,83,84,85,86,87,88,89,90,91,92,93,94,95,96,97,98,100,101,102,103,104,105,106,107,108,109,110,111,112,113,114,115,116,117,118,119,120,121,122,123,124,125,126,127,128,129,130,131,132,133,134,135,136,137,138,139,140,141,142,143,144,145,146,147,148,149,150,151,152,153,154,155,156,157,158,159,160,161,162,163,164,165,166,167,168,169,170,171,172,173,174,175,9,24,32,33,36,40,55,63,65,67,69,74,77,80,85,91,107,108,117,120,130,133,138,143,144,163,166,168,171,174,176,0,1,2,3,4,5,6,7,8,9,10,11,12,13,14,15,16,17,18,19,20,21,22,23,24,25,26,27,28,30,31,32,33,34,35,36,37,38,39,40,41,42,43,44,45,46,47,48,49,51,52,53,54,55,56,57,58,59,60,61,62,63,64,65,66,67,68,69,70,71,73,74,75,76,77,78,79,80,81,82,83,84,85,86,87,88,89,90,91,92,93,94,95,96,97,98,99,101,102,103,104,105,106,107,108,109,110,111,112,113,114,115,116,117,118,119,121,122,123,124,125,126,127,128,129,130,131,132,133,134,135,136,137,138,139,140,141,142,143,144,145,147,148,149,150,151,152,153,154,155,156,157,158,159,160,161,162,163,164,165,166,167,168,170,171,172,173,175,176,177,178,0,1,2,0,1,2,5,13,22,0,1,2,3,4,5,6,7,8,9,10,11,12,13,14,15,16,17,18,19,20,21,22,23,24,25,26,27,28,29,30,31,32,33,34,35,36,37,38,39,40,41,42,43,44,45,46,47,48,49,50,51,53,54,55,56,57,58,59,60,61,62,63,64,65,66,67,68,69,70,71,72,73,74,75,76,77,78,79,80,81,82,83,84,86,87,88,89,90,91,92,93,94,95,96,97,98,99,100,101,102,103,104,105,106,107,108,109,110,111,112,113,114,115,116,117,118,119,120,121,122,123,124,125,126,127,128,129,130,131,132,133,134,135,136,137,138,139,140,141,142,143,144,145,146,147,148,149,150,151,152,153,154,155,156,157,158,159,160,162,163,164,165,166,168,169,170,171,172,173,174,175,176,177,178,0,1,2,3,4,5,6,7,8,10,11,12,13,14,15,16,17,18,19,20,21,23,26,28,29,31,32,34,36,37,38,39,41,42,43,44,45,46,47,49,50,51,52,53,57,58,59,60,62,64,66,67,68,70,72,73,75,76,78,79,81,82,83,84,86,87,88,89,90,91,92,93,94,95,96,97,100,101,102,103,104,106,108,109,110,111,112,113,114,115,116,117,118,119,121,122,123,124,125,127,128,130,131,132,134,135,136,137,139,140,141,142,145,146,147,148,149,150,151,152,153,154,155,156,157,158,159,160,161,162,163,164,165,166,168,169,170,172,173,174,175,177,178,12,19,34,45,92,128,141,156,170,71,93,128,137,141,9,24,36,40,55,65,67,69,91,107,108,117,120,138,143,144,166,168,171,176,0,1,2,3,4,5,6,7,8,9,10,11,12,13,14,15,16,17,18,19,20,21,22,23,24,25,26,27,28,29,30,31,33,34,35,36,37,38,39,40,41,42,43,44,45,46,47,48,49,50,51,52,53,54,55,56,57,58,59,60,61,62,63,64,65,66,67,68,69,70,71,72,73,74,75,76,77,78,79,81,82,83,84,85,86,87,88,89,90,91,92,93,94,95,96,97,98,99,100,101,102,103,104,105,106,107,108,109,110,111,112,113,114,115,116,117,118,119,120,121,122,123,124,125,126,127,128,129,130,131,132,133,134,135,136,137,138,139,140,141,142,143,144,145,146,147,148,149,150,151,152,153,154,155,156,157,158,159,160,161,162,163,164,165,166,167,168,169,170,171,172,173,174,175,177,178,0,1,2,3,4,5,6,7,8,9,10,11,12,13,14,15,16,17,18,19,20,21,22,23,24,25,27,28,29,30,31,32,33,34,35,36,37,38,39,40,41,42,43,44,45,46,47,48,49,50,51,52,53,54,55,56,57,60,61,62,63,64,65,66,67,68,69,70,71,72,73,74,75,76,77,78,79,80,81,82,83,84,85,86,87,88,89,90,91,92,93,94,95,96,97,98,99,100,101,102,103,104,105,106,107,108,109,110,111,112,113,114,115,116,117,118,119,120,121,122,123,124,125,126,127,128,129,130,131,132,133,134,135,136,137,138,139,140,141,142,143,144,145,146,147,148,149,150,151,152,153,154,155,156,157,158,159,160,161,162,163,164,165,166,167,168,169,170,171,172,173,174,175,176,177,178,0,1,2,3,4,5,6,7,8,9,10,11,12,13,14,15,16,17,18,19,20,21,22,23,24,25,26,27,28,29,30,31,32,33,34,35,36,37,38,39,40,41,42,43,44,45,46,47,48,49,50,51,52,53,54,55,56,57,58,59,60,61,62,63,64,65,66,67,68,69,70,71,72,73,74,75,76,77,78,79,80,81,82,83,84,85,86,87,88,89,90,91,92,93,94,95,96,97,98,99,100,101,102,103,104,105,106,107,108,109,110,111,112,113,115,116,117,118,119,120,121,122,123,124,125,126,127,128,129,130,131,132,133,134,135,136,137,138,139,140,141,142,143,144,145,146,147,148,149,150,0,1,2,3,4,5,6,7,8,9,10,11,12,13,14,15,16,17,18,19,20,21,22,23,24,25,26,27,28,29,31,32,33,34,35,36,37,38,39,40,41,42,43,44,45,46,47,48,49,50,51,52,53,54,55,57,58,59,60,61,62,63,64,65,66,67,68,69,70,71,72,73,74,75,76,77,78,79,80,81,82,83,84,85,86,87,88,89,90,91,92,93,94,95,96,97,98,99,100,101,102,103,104,106,107,108,109,110,111,112,113,114,115,116,117,118,119,120,121,122,123,124,125,126,127,128,129,130,131,132,133,134,135,136,137,139,140,141,142,143,144,145,146,147,148,149,150,151,152,153,154,155,156,157,158,159,160,161,162,163,164,165,166,167,168,169,170,171,172,173,174,175,176,177,178,0,1,2,3,4,5,6,7,8,9,10,11,12,13,14,15,16,17,18,19,20,21,22,23,24,25,26,27,28,29,30,31,32,33,34,35,36,37,38,39,40,41,42,43,44,45,46,47,48,49,50,51,53,54,55,56,57,58,59,60,61,62,63,64,65,66,67,68,69,70,71,72,73,74,75,76,77,78,79,80,81,82,83,84,85,86,87,88,89,90,91,92,93,94,95,96,97,98,99,100,101,102,103,104,105,106,107,108,109,110,111,112,113,114,115,116,117,118,119,120,121,122,123,124,125,126,127,128,129,130,131,132,133,134,135,136,137,138,139,140,141,142,143,144,145,146,147,148,149,150,151,152,153,154,155,156,157,158,159,160,162,163,164,165,166,167,168,169,170,171,172,173,174,175,176,177,178,0,1,3,4,5,6,7,8,9,10,11,12,13,14,15,16,17,18,19,20,21,22,23,24,25,26,27,28,29,30,31,34,35,36,37,38,39,40,41,42,43,44,45,46,47,48,49,50,51,52,53,54,55,56,57,58,59,60,61,62,63,64,65,66,67,68,69,70,71,72,73,74,75,76,78,79,81,82,83,84,85,86,87,88,89,90,91,92,93,94,95,96,97,98,99,100,101,102,103,104,105,106,107,108,109,110,111,112,113,114,115,116,117,118,119,120,121,122,123,124,125,126,127,128,129,131,132,133,134,135,136,137,138,139,140,141,142,143,144,145,146,147,148,149,150,151,152,153,154,155,156,157,158,159,160,161,162,164,165,166,167,168,0,1,2,3,4,5,6,7,8,10,11,12,13,14,15,16,17,18,19,20,21,23,26,28,29,31,32,33,34,36,37,38,39,41,42,43,44,45,46,47,49,50,51,52,53,56,57,58,59,60,62,63,64,66,67,68,70,72,73,75,76,77,78,79,80,81,82,83,84,85,86,87,88,89,90,91,92,93,94,95,96,97,99,100,101,102,103,104,106,107,108,109,110,111,112,113,114,115,116,117,118,119,121,122,123,124,125,127,128,130,131,132,134,135,136,137,139,140,141,142,145,146,147,148,149,150,151,152,153,154,155,156,157,158,159,160,161,162,163,164,165,166,168,169,170,172,173,174,175,176,177,178,0,1,2,3,4,5,6,7,8,9,10,11,12,13,14,15,16,17,18,19,20,21,22,23,24,25,26,27,28,29,30,31,32,33,34,35,36,37,38,39,40,41,42,43,44,45,46,47,48,49,50,51,52,53,54,55,56,58,59,60,61,62,63,64,65,66,67,68,69,70,71,72,73,74,75,76,77,78,79,80,81,82,83,84,85,86,87,88,89,90,91,92,93,94,95,96,97,98,99,100,101,102,104,105,106,107,108,109,110,111,112,113,114,115,116,117,118,119,120,121,122,123,124,125,126,127,128,129,130,131,132,133,134,135,136,137,138,139,140,141,142,143,144,145,146,147,148,149,150,151,152,153,154,155,156,157,158,159,160,161,162,163,164,165,166,167,168,169,170,171,172,173,174,175,176,177,178,0,1,3,4,71,93,128,137,58,93,147,2,12,22,31,46,52,56,58,70,71,72,83,105,113,125,129,134,137,139,146,155,159,161,167,177,77,80,85,133,40,67,108,117,138,143,144,166,168],"categories_nodes":[0,1,4,5,7,8,10,11,12,13,14,15,16,17,18,19,22,24,26,27,29,30,33,34,35,40,41,42,43,44,45,46],"categories_segments":[0,1,2,157,278,443,446,447,621,652,823,826,830,832,1007,1150,1159,1164,1184,1360,1536,1686,1861,2038,2200,2352,2529,2533,2537,2540,2565,2569],"categories_sizes":[1,1,155,121,165,3,1,174,31,171,3,4,2,175,143,9,5,20,176,176,150,175,177,162,152,177,4,4,3,25,4,9],"default_left":[1,1,0,0,0,0,0,0,1,0,1,0,1,0,0,0,1,0,0,1,0,0,1,0,1,0,0,0,0,0,0,0,0,0,0,0,0,0,0,0,0,1,1,1,1,1,1,0,0,0,0,0,0,0,0,0,0,0,0,0,0,0,0,0,0,0,0,0,0,0,0,0,0,0,0,0,0,0,0,0,0,0,0],"id":3,"left_children":[1,3,5,-1,7,9,11,13,15,17,19,21,23,25,27,29,31,33,35,37,39,-1,41,43,45,-1,47,49,-1,51,53,-1,-1,55,57,59,61,63,65,67,69,71,73,75,77,79,81,-1,-1,-1,-1,-1,-1,-1,-1,-1,-1,-1,-1,-1,-1,-1,-1,-1,-1,-1,-1,-1,-1,-1,-1,-1,-1,-1,-1,-1,-1,-1,-1,-1,-1,-1,-1],"loss_changes":[5.7335E3,1.196582E1,1.9543252E4,0E0,2.0468994E1,3.3399316E2,4.6916016E1,2.5800781E0,4.4069595E0,2.331543E2,3.908133E1,1.9293423E1,2.461914E0,1.8798828E-1,5.831787E0,1.5046577E0,2.0185378E-1,9.114441E0,1.0062891E2,2.6481655E1,9.996495E0,0E0,7.2428436E0,8.947754E-1,6.503906E-1,0E0,4.5654297E-2,1.2792969E-1,0E0,1.3802338E-1,1.6182976E0,0E0,0E0,9.013977E-1,3.0028687E0,4.169922E0,2.498413E1,1.0679802E1,3.0140228E1,5.970484E0,3.1609468E0,2.298832E0,7.637787E-2,8.042297E0,4.2700195E-1,1.2695312E-1,1.9628906E-1,0E0,0E0,0E0,0E0,0E0,0E0,0E0,0E0,0E0,0E0,0E0,0E0,0E0,0E0,0E0,0E0,0E0,0E0,0E0,0E0,0E0,0E0,0E0,0E0,0E0,0E0,0E0,0E0,0E0,0E0,0E0,0E0,0E0,0E0,0E0,0E0],"parents":[2147483647,0,0,1,1,2,2,4,4,5,5,6,6,7,7,8,8,9,9,10,10,11,11,12,12,13,13,14,14,15,15,16,16,17,17,18,18,19,19,20,20,22,22,23,23,24,24,26,26,27,27,29,29,30,30,33,33,34,34,35,35,36,36,37,37,38,38,39,39,40,40,41,41,42,42,43,43,44,44,45,45,46,46],"right_children":[2,4,6,-1,8,10,12,14,16,18,20,22,24,26,28,30,32,34,36,38,40,-1,42,44,46,-1,48,50,-1,52,54,-1,-1,56,58,60,62,64,66,68,70,72,74,76,78,80,82,-1,-1,-1,-1,-1,-1,-1,-1,-1,-1,-1,-1,-1,-1,-1,-1,-1,-1,-1,-1,-1,-1,-1,-1,-1,-1,-1,-1,-1,-1,-1,-1,-1,-1,-1,-1],"split_conditions":[NaN,NaN,8.13E2,3.2209396E-1,NaN,NaN,1.8534E4,NaN,NaN,8E0,NaN,NaN,NaN,NaN,NaN,NaN,NaN,NaN,NaN,NaN,3.1E1,3.4719235E-1,NaN,1.66682E5,NaN,3.225978E-1,NaN,NaN,-3.4668386E-1,NaN,NaN,-2.388643E-3,-1.1685373E-1,NaN,NaN,NaN,4.2E1,1.04E2,2.8E1,1.7E1,NaN,NaN,NaN,NaN,NaN,NaN,NaN,3.116548E-1,3.0809185E-1,3.2195497E-1,2.9403988E-1,3.21701E-1,2.4829523E-1,1.973555E-1,8.858885E-2,2.647592E-1,1.9711208E-1,1.5609212E-1,-1.4557245E-1,3.1583038E-1,2.9654387E-1,2.529942E-1,1.9886324E-1,1.3554598E-1,3.2813024E-2,1.3696618E-1,-2.1033694E-1,3.9718494E-1,-3.004789E-1,6.2363267E-2,-6.6615984E-2,2.190364E-1,-2.0825246E-1,-3.0129892E-1,-3.925127E-1,2.233887E-1,-3.9579526E-1,-4.0571198E-1,-4.1768926E-1,-4.2279565E-1,-4.2677245E-1,-4.3426356E-1,-4.5744708E-1],"split_indices":[1,1,4,0,0,0,4,0,0,4,2,0,0,0,2,2,0,0,0,0,4,0,0,4,0,0,0,0,0,0,0,0,0,0,0,0,4,4,4,4,0,2,0,0,0,0,0,0,0,0,0,0,0,0,0,0,0,0,0,0,0,0,0,0,0,0,0,0,0,0,0,0,0,0,0,0,0,0,0,0,0,0,0],"split_type":[1,1,0,0,1,1,0,1,1,0,1,1,1,1,1,1,1,1,1,1,0,0,1,0,1,0,1,1,0,1,1,0,0,1,1,1,0,0,0,0,1,1,1,1,1,1,1,0,0,0,0,0,0,0,0,0,0,0,0,0,0,0,0,0,0,0,0,0,0,0,0,0,0,0,0,0,0,0,0,0,0,0,0],"sum_hessian":[2.7508574E4,9.263754E3,1.824482E4,5.7619507E3,3.5018032E3,1.2238356E4,6.0064644E3,3.3734346E3,1.2836874E2,1.1458511E4,7.7984546E2,1.041175E2,5.902347E3,2.0740088E3,1.2994258E3,1.225434E2,5.825344E0,2.219384E3,9.239127E3,6.14204E2,1.6564146E2,5.1213408E0,9.899616E1,1.4725774E3,4.4297695E3,1.2930624E2,1.9447025E3,1.2981633E3,1.2624385E0,1.1652788E1,1.1089062E2,2.264641E0,3.5607028E0,5.819911E2,1.6373928E3,5.47178E3,3.7673467E3,5.2230365E2,9.190034E1,2.2362286E1,1.4327917E2,7.389857E1,2.5097593E1,9.099555E1,1.3815818E3,3.8421365E3,5.87633E2,1.1072313E3,8.374711E2,1.7215763E1,1.2809475E3,7.662812E0,3.9899757E0,9.672846E1,1.4162154E1,1.8470818E1,5.6352026E2,1.6344324E3,2.9604826E0,1.3440074E3,4.1277725E3,2.6934941E3,1.0738525E3,4.047728E2,1.1753085E2,3.920132E1,5.269902E1,1.1476613E0,2.1214624E1,1.983407E1,1.2344511E2,1.1356499E0,7.276292E1,1.2330266E0,2.3864567E1,1.9167018E0,8.907885E1,4.19037E2,9.6254486E2,1.7758856E3,2.066251E3,5.444969E2,4.313612E1],"tree_param":{"num_deleted":"0","num_feature":"5","num_nodes":"83","size_leaf_vector":"1"}},{"base_weights":[3.749906E-1,5.989969E-1,-1.0395929E0,1.0141532E0,3.579618E-1,3.396695E-1,-1.1434026E0,-1.5413079E0,1.0322212E0,-1.236272E0,3.946233E-1,-7.0313793E-1,8.495755E-1,1.022556E0,-1.1678649E0,5.172345E-1,-1.6195797E0,6.4170414E-1,1.0354635E0,-5.2150226E-1,-1.3959614E0,4.530772E-1,-1.3271224E-1,3.156289E-1,-1.0189924E0,1.0370538E0,4.48431E-1,3.1624135E-1,1.3628295E-1,-1.2021103E0,-8.82942E-1,-1.5962633E0,-6.6622984E-1,9.897114E-1,-9.500606E-1,3.1599158E-1,1.0066482E0,-1.3405116E0,-5.7723384E-2,-1.2012272E0,-1.4658656E0,4.9131387E-1,1.8259803E-2,-1.6441105E-3,-5.909851E-1,-4.917257E-2,-1.1787701E0,1.077227E0,8.4410006E-1,5.5170983E-1,-8.1809145E-1,-1.2425075E-1,-3.612399E-1,-2.4200721E-1,-1.1831722E0,-4.219825E-1,-4.8517257E-1,3.159275E-1,1.6998938E-1,3.6534646E-1,-4.0074524E-1,2.6971298E-1,3.0792686E-1,-3.6108923E-1,-4.5277733E-1,2.5929067E-1,-6.733272E-2,-4.0500513E-1,-3.0917192E-1,-4.139692E-1,-4.5456067E-1,1.775764E-1,1.304907E-1,4.331377E-2,-1.036701E-1,-2.1515968E-1,1.3718452E-2,-3.556036E-1,-1.13249674E-1,-2.6032928E-1,1.2238007E-1,-6.369243E-1,-3.4586E-1,2.6277828E-1,3.24773E-1,3.1703404E-1,1.835472E-1,1.1114468E-1,2.8433824E-1,-1.701244E-2,-3.9670074E-1,4.4440355E-2,-2.719673E-1,1.0792813E-1,-1.3873874E-1,-2.969576E-1,-3.8341242E-1],"categories":[2,0,2,4,5,2,0,1,2,3,4,5,6,7,8,9,10,11,12,13,14,15,16,17,18,19,20,21,22,23,24,25,26,27,28,29,30,31,32,33,34,35,36,37,38,39,40,41,42,43,44,45,46,47,48,49,50,51,52,53,54,55,56,57,58,59,60,61,62,63,64,65,66,67,68,69,70,71,73,74,75,76,77,78,79,80,81,82,83,84,85,86,87,88,89,90,91,92,93,94,95,96,97,98,99,100,101,102,103,104,105,106,107,108,109,110,111,112,113,114,115,116,117,118,119,120,121,122,123,124,125,126,127,128,129,130,131,132,133,134,135,136,137,138,139,140,141,142,143,144,145,146,147,148,149,150,151,152,153,154,155,156,157,158,159,160,161,162,163,164,165,166,167,168,169,170,171,172,173,174,175,176,177,178,2,33,41,52,55,56,58,77,80,85,93,130,163,167,176,0,1,3,4,5,6,7,8,9,10,11,12,13,14,15,16,17,18,19,20,21,22,23,26,27,28,29,31,34,35,36,37,38,39,41,42,43,44,45,46,47,49,51,53,55,57,58,59,60,62,64,65,67,68,70,71,73,75,76,78,79,81,82,83,84,86,87,88,89,90,92,93,94,95,96,97,99,100,101,102,103,104,105,106,109,110,111,112,113,114,115,116,117,118,119,121,123,124,127,128,129,131,132,135,136,137,139,140,141,142,145,147,148,149,150,151,152,153,154,155,156,157,158,159,160,162,164,165,166,170,171,172,173,175,177,178,2,0,1,2,3,4,5,6,7,8,9,10,11,12,13,14,15,16,17,18,19,20,21,22,24,25,27,28,29,30,32,33,34,35,36,37,38,39,40,41,42,43,44,45,46,47,48,49,50,51,52,53,54,55,56,57,58,59,60,61,62,63,64,65,66,67,69,70,71,72,73,74,75,76,77,78,79,80,81,82,84,85,86,87,88,89,90,91,92,93,94,95,96,97,98,100,101,102,103,104,106,107,108,109,110,111,112,113,115,116,117,118,119,120,121,123,124,125,126,127,128,129,130,131,132,133,134,135,136,137,138,139,140,142,143,144,145,146,147,148,149,150,151,152,153,154,157,158,160,161,162,163,164,165,166,167,168,169,170,172,173,174,175,176,177,178,0,1,2,3,4,5,6,7,8,9,10,11,12,13,14,15,16,17,18,19,20,21,22,23,24,25,26,27,28,29,30,31,32,33,34,35,36,37,38,39,40,41,42,43,44,45,46,47,48,49,50,51,52,53,54,55,56,57,58,59,60,61,62,63,64,65,66,67,68,69,70,71,72,73,74,75,76,77,78,79,80,81,82,83,84,85,86,87,88,89,90,91,92,93,94,95,96,97,98,99,100,101,102,103,104,105,106,107,108,109,110,111,112,113,114,115,116,117,118,119,120,121,122,123,124,125,126,127,128,129,130,131,132,134,135,136,137,138,139,140,141,142,143,145,146,147,148,149,150,151,152,153,154,155,156,157,158,159,160,161,162,163,164,165,166,167,168,169,170,171,172,173,0,2,80,85,130,167,8,12,19,23,29,34,35,43,46,57,68,70,71,83,84,87,99,100,101,105,113,114,119,121,141,147,155,156,159,165,175,0,1,2,3,4,5,6,7,8,9,10,11,12,13,14,15,16,17,18,19,20,21,22,23,24,25,26,27,28,29,30,31,32,33,34,35,36,37,38,39,40,41,42,43,44,45,46,47,48,49,50,51,52,53,54,55,56,57,58,59,60,61,62,63,64,65,66,67,68,69,70,71,72,73,74,75,76,77,78,79,80,81,82,83,84,85,86,87,88,89,90,91,92,93,94,95,96,97,98,99,100,101,102,103,104,105,106,107,108,109,110,111,112,113,114,115,116,117,118,119,120,121,122,123,124,125,126,127,128,129,130,131,132,133,147,0,1,2,3,4,5,6,7,8,9,10,11,12,13,14,15,16,17,18,19,20,21,22,24,25,27,28,29,30,32,33,34,35,36,37,38,39,40,41,42,43,44,45,46,47,48,49,50,51,52,53,54,55,56,57,58,59,60,61,62,63,64,65,66,67,69,70,71,72,73,74,75,76,77,78,79,80,81,82,83,84,85,86,87,88,89,90,91,92,93,94,95,96,97,98,100,101,102,103,104,106,107,108,109,110,111,112,113,115,116,117,118,119,120,121,123,124,125,126,127,128,129,130,131,132,133,134,135,136,137,138,139,140,141,142,143,144,145,146,147,148,149,150,151,152,153,154,157,158,160,161,162,163,164,165,166,167,168,169,170,172,173,174,175,176,177,178,84,147,30,32,54,58,93,100,105,106,128,134,161,176,5,0,0,32,0,1,2,3,4,5,6,7,8,9,10,11,12,13,14,15,16,17,18,19,20,21,22,23,24,25,26,27,28,29,30,31,32,33,34,35,36,37,38,39,40,41,42,43,44,45,46,47,48,49,50,51,52,53,54,55,56,57,58,59,60,61,62,63,64,65,66,67,68,69,70,71,72,73,74,75,76,77,78,79,80,81,82,83,84,85,86,87,88,89,90,91,92,93,94,95,96,97,98,99,100,101,102,103,104,105,106,107,108,109,110,111,112,113,114,115,116,117,118,119,120,121,122,123,124,125,126,127,128,129,130,131,132,133,134,135,136,137,138,139,140,141,142,143,144,145,146,147,148,149,150,151,152,153,154,155,156,157,158,159,160,162,163,164,165,166,167,168,169,170,171,172,173,174,175,176,177,178,80,85,167,0,1,2,3,4,5,6,7,8,9,10,11,12,13,14,15,16,17,18,19,20,21,22,23,24,26,27,28,29,31,32,33,34,35,36,37,38,39,40,41,42,43,44,45,46,47,49,51,52,53,54,55,56,57,58,59,60,61,62,64,65,66,67,68,69,70,71,72,73,75,76,77,78,79,81,82,83,84,86,87,88,89,90,91,92,93,94,95,96,97,99,100,101,102,103,104,105,106,108,109,110,111,112,113,114,115,116,117,118,119,120,121,122,123,124,127,128,129,130,131,132,135,136,137,138,139,140,141,142,144,145,146,147,148,149,150,151,152,153,154,155,156,157,158,159,160,161,162,163,164,165,166,168,170,171,172,173,174,175,176,177,178,0,1,2,3,4,5,6,7,8,9,10,11,12,13,14,15,16,17,18,19,20,21,22,23,24,25,26,27,28,29,30,31,32,33,34,35,36,37,38,39,40,41,42,43,44,45,46,47,48,49,50,51,52,53,54,55,56,57,58,59,60,61,62,63,64,65,66,67,68,69,70,71,72,73,74,75,76,77,78,79,80,81,82,83,84,85,86,87,88,89,90,91,92,93,94,95,96,97,98,99,100,101,102,103,104,105,106,107,108,109,110,111,112,113,122,147,0,1,2,4,5,0,1,2,3,4,5,6,7,8,9,10,11,12,13,14,15,16,17,18,19,20,21,22,23,24,25,26,27,28,29,30,31,32,33,34,35,36,37,38,39,40,41,42,43,44,45,46,47,48,49,50,51,52,53,54,55,56,57,59,60,61,62,63,64,65,66,68,69,70,72,73,74,75,76,77,78,79,80,81,82,83,84,85,86,87,88,89,90,91,92,93,94,95,96,97,98,99,101,102,103,104,105,106,107,108,109,110,111,112,113,114,115,116,117,118,119,120,121,122,123,124,125,126,127,1,0,1,2,3,4,5,6,7,8,9,10,11,12,13,14,15,16,17,18,19,20,21,22,23,24,25,26,27,28,29,30,31,32,33,34,35,36,37,38,39,40,41,42,43,44,45,46,47,48,49,50,51,52,53,54,55,56,0,1,2,3,4,5,6,7,8,9,10,11,12,13,14,15,16,17,18,19,20,21,22,23,24,25,26,27,28,29,30,31,32,33,34,35,36,37,38,39,40,41,42,43,44,45,46,47,48,49,50,51,52,53,54,55,56,57,58,59,60,61,62,63,64,65,66,67,68,69,70,71,72,73,74,75,76,78,79,80,81,82,83,84,85,86,87,88,89,90,91,92,93,94,95,96,97,98,99,100,101,102,103,104,105,106,107,108,109,110,111,112,113,114,115,116,117,118,119,120,121,122,123,124,125,126,127,128,129,131,132,134,135,136,137,139,140,141,142,143,144,145,146,147,148,149,150,151,152,153,154,155,156,157,158,159,160,161,162,163,164,165,166,54,58,93,100,105,106,134],"categories_nodes":[1,2,6,7,9,10,11,12,17,18,20,22,24,25,26,30,31,33,34,37,38,40,41,46,48,49,50,51,53,54],"categories_segments":[0,1,5,6,184,199,335,336,501,673,674,679,710,845,1012,1014,1026,1027,1028,1029,1030,1208,1211,1373,1489,1494,1618,1619,1676,1839],"categories_sizes":[1,4,1,178,15,136,1,165,172,1,5,31,135,167,2,12,1,1,1,1,178,3,162,116,5,124,1,57,163,7],"default_left":[0,1,1,0,0,0,1,0,0,1,0,1,0,0,0,0,0,0,1,0,1,0,1,0,0,0,1,0,0,0,1,1,0,1,1,0,0,1,0,0,1,0,0,0,0,0,0,0,1,0,1,1,0,0,1,0,0,0,0,0,0,0,0,0,0,0,0,0,0,0,0,0,0,0,0,0,0,0,0,0,0,0,0,0,0,0,0,0,0,0,0,0,0,0,0,0,0],"id":4,"left_children":[1,3,5,7,9,11,13,15,17,19,21,23,25,27,29,-1,31,33,35,37,39,41,43,-1,45,47,49,-1,-1,51,53,55,-1,57,59,-1,61,63,65,67,69,71,73,75,77,79,81,83,85,87,89,91,-1,93,95,-1,-1,-1,-1,-1,-1,-1,-1,-1,-1,-1,-1,-1,-1,-1,-1,-1,-1,-1,-1,-1,-1,-1,-1,-1,-1,-1,-1,-1,-1,-1,-1,-1,-1,-1,-1,-1,-1,-1,-1,-1,-1],"loss_changes":[6.954893E3,1.8960503E3,4.2961987E2,3.213877E2,7.006647E2,1.1169668E2,1.4787549E2,1.254715E1,8.736816E0,3.0744598E1,3.6121863E2,3.826775E1,1.0600029E1,5.498123E-1,2.6902344E1,0E0,5.979233E-1,3.1571585E1,3.5029297E0,1.870317E1,2.9628906E0,1.7538867E2,7.023716E1,0E0,9.059971E0,7.2678375E-1,5.8909645E0,0E0,0E0,5.3671875E0,5.6979385E1,1.3737488E-1,0E0,1.2415657E0,8.586997E0,0E0,5.5595703E0,3.7465477E-1,4.840057E0,1.4521408E0,6.44989E-1,5.4960693E1,3.9127483E1,3.0824085E1,3.2989555E1,3.1099262E0,1.1788101E0,6.649017E-2,8.0982685E-1,2.9781923E0,1.3031461E0,9.906914E-1,0E0,1.2539014E1,3.6729736E0,0E0,0E0,0E0,0E0,0E0,0E0,0E0,0E0,0E0,0E0,0E0,0E0,0E0,0E0,0E0,0E0,0E0,0E0,0E0,0E0,0E0,0E0,0E0,0E0,0E0,0E0,0E0,0E0,0E0,0E0,0E0,0E0,0E0,0E0,0E0,0E0,0E0,0E0,0E0,0E0,0E0,0E0],"parents":[2147483647,0,0,1,1,2,2,3,3,4,4,5,5,6,6,7,7,8,8,9,9,10,10,11,11,12,12,13,13,14,14,16,16,17,17,18,18,19,19,20,20,21,21,22,22,24,24,25,25,26,26,29,29,30,30,31,31,33,33,34,34,36,36,37,37,38,38,39,39,40,40,41,41,42,42,43,43,44,44,45,45,46,46,47,47,48,48,49,49,50,50,51,51,53,53,54,54],"right_children":[2,4,6,8,10,12,14,16,18,20,22,24,26,28,30,-1,32,34,36,38,40,42,44,-1,46,48,50,-1,-1,52,54,56,-1,58,60,-1,62,64,66,68,70,72,74,76,78,80,82,84,86,88,90,92,-1,94,96,-1,-1,-1,-1,-1,-1,-1,-1,-1,-1,-1,-1,-1,-1,-1,-1,-1,-1,-1,-1,-1,-1,-1,-1,-1,-1,-1,-1,-1,-1,-1,-1,-1,-1,-1,-1,-1,-1,-1,-1,-1,-1],"split_conditions":[8.29E2,NaN,NaN,8E0,3E0,3.641E3,NaN,NaN,1.1E1,NaN,NaN,NaN,NaN,4.7539E4,9.01E2,5.172345E-1,7E0,NaN,NaN,2E0,NaN,8.3E1,NaN,3.156289E-1,NaN,NaN,NaN,3.1624135E-1,1.3628295E-1,9E2,NaN,NaN,-6.6622984E-1,NaN,NaN,3.1599158E-1,2.3E1,NaN,NaN,2E0,NaN,NaN,1.73E2,2.1E1,4.5E1,9.01E2,NaN,4.301E3,NaN,NaN,NaN,NaN,-3.612399E-1,NaN,NaN,-4.219825E-1,-4.8517257E-1,3.159275E-1,1.6998938E-1,3.6534646E-1,-4.0074524E-1,2.6971298E-1,3.0792686E-1,-3.6108923E-1,-4.5277733E-1,2.5929067E-1,-6.733272E-2,-4.0500513E-1,-3.0917192E-1,-4.139692E-1,-4.5456067E-1,1.775764E-1,1.304907E-1,4.331377E-2,-1.036701E-1,-2.1515968E-1,1.3718452E-2,-3.556036E-1,-1.13249674E-1,-2.6032928E-1,1.2238007E-1,-6.369243E-1,-3.4586E-1,2.6277828E-1,3.24773E-1,3.1703404E-1,1.835472E-1,1.1114468E-1,2.8433824E-1,-1.701244E-2,-3.9670074E-1,4.4440355E-2,-2.719673E-1,1.0792813E-1,-1.3873874E-1,-2.969576E-1,-3.8341242E-1],"split_indices":[3,1,2,3,3,3,1,0,3,0,0,1,0,3,3,0,3,0,1,3,0,3,0,0,0,0,0,0,0,3,0,2,0,1,1,0,3,0,0,3,0,0,3,3,3,3,0,3,2,0,2,0,0,0,0,0,0,0,0,0,0,0,0,0,0,0,0,0,0,0,0,0,0,0,0,0,0,0,0,0,0,0,0,0,0,0,0,0,0,0,0,0,0,0,0,0,0],"split_type":[0,1,1,0,0,0,1,1,0,1,1,1,1,0,0,0,0,1,1,0,1,0,1,0,1,1,1,0,0,0,1,1,0,1,1,0,0,1,1,0,1,1,0,0,0,0,1,0,1,1,1,1,0,1,1,0,0,0,0,0,0,0,0,0,0,0,0,0,0,0,0,0,0,0,0,0,0,0,0,0,0,0,0,0,0,0,0,0,0,0,0,0,0,0,0,0,0],"sum_hessian":[2.1948283E4,1.8947814E4,3.0004678E3,6.9599688E3,1.1987846E4,2.1001872E2,2.7904492E3,4.8851933E1,6.911117E3,2.6946448E2,1.1718381E4,6.896693E1,1.4105179E2,3.1154284E1,2.759295E3,1.133685E0,4.7718246E1,5.693996E1,6.8541772E3,4.9223972E1,2.2024052E2,1.0549047E4,1.169334E3,1.0510755E1,5.8456173E1,9.610458E1,4.4947205E1,2.9497725E1,1.6565582E0,2.463177E3,2.9611774E2,4.6007225E1,1.7110221E0,4.6730824E1,1.0209137E1,4.232681E3,2.6214958E3,1.7782684E1,3.144129E1,5.8272915E1,1.619676E2,9.696371E3,8.52676E2,9.092924E2,2.6004153E2,8.272179E0,5.0183994E1,7.9467285E1,1.6637297E1,4.156882E1,3.378385E0,4.616321E0,2.4585608E3,9.4472725E1,2.0164503E2,4.718266E0,4.128896E1,4.0616264E1,6.114559E0,1.5356575E0,8.673479E0,4.071126E2,2.2143833E3,9.908522E0,7.8741612E0,4.8017006E0,2.663959E1,3.105655E1,2.7216368E1,5.927074E1,1.0269686E2,3.4808687E3,6.2155024E3,6.3319366E2,2.1948236E2,5.644301E1,8.528494E2,6.869592E1,1.9134561E2,2.9576735E0,5.3145056E0,1.2964821E0,4.8887512E1,2.1429162E0,7.732437E1,8.647749E0,7.9895477E0,2.8546394E1,1.3022427E1,1.3549241E0,2.023461E0,3.4360962E0,1.1802249E0,2.5326654E1,6.9146065E1,6.64567E1,1.3518832E2],"tree_param":{"num_deleted":"0","num_feature":"5","num_nodes":"97","size_leaf_vector":"1"}},{"base_weights":[3.2147452E-1,5.088344E-1,-9.6848255E-1,9.930185E-1,2.7874002E-1,-3.4268987E-1,-1.9983152E-1,-1.3192761E0,1.0110192E0,6.9197756E-1,-1.3998811E0,2.3439153E-1,-1.1011833E0,-1.3718091E0,-1.1163381E0,6.1305994E-1,1.0145416E0,-1.0023255E0,7.305692E-1,-1.2557323E0,-1.416703E0,1.0256803E0,1.8646817E-3,-9.419331E-1,-1.1514031E0,-1.4040436E0,-3.9905843E-1,-3.4969646E-1,-2.885246E-1,3.129451E-1,-3.1579506E-1,3.1165808E-1,9.757441E-1,-4.0582293E-1,-2.4842617E-1,7.8702825E-1,2.117033E-1,-1.2740178E0,-3.5535243E-1,-1.4312611E0,-1.3108062E0,3.1196356E-1,9.546967E-1,2.1382406E-1,-1.1469637E0,-1.244245E0,-2.1672213E-1,1.8195936E-1,-1.1771083E0,-3.833273E-1,-4.3045756E-1,-3.3825937E-1,1.6691232E-2,2.5254923E-1,3.0037093E-1,3.273267E-2,2.4253382E-1,1.1577415E-1,-4.163122E-3,-3.5413823E-1,-3.9044064E-1,-3.4412283E-1,-4.3037495E-1,-4.017329E-1,-3.812379E-1,3.1223002E-1,8.098544E-2,2.4115172E-1,-2.365623E-2,-3.5354716E-1,-1.3843337E-1,-9.865002E-1,-3.4328392E-1,5.5328574E-2,-8.377825E-2,-3.932933E-1,-3.3034074E-1],"categories":[2,0,2,4,2,5,2,0,0,0,1,3,4,5,1,2,3,4,5,0,1,2,4,5,0,2,3,4,5],"categories_nodes":[1,6,10,11,15,16,18,25,36,42,43],"categories_segments":[0,1,4,6,7,8,9,13,14,19,24],"categories_sizes":[1,3,2,1,1,1,4,1,5,5,5],"default_left":[0,1,0,0,0,0,1,0,0,0,1,1,0,0,0,1,1,0,1,0,0,0,0,1,0,1,0,0,0,0,0,0,0,0,0,0,1,0,0,0,0,0,1,1,0,0,0,0,0,0,0,0,0,0,0,0,0,0,0,0,0,0,0,0,0,0,0,0,0,0,0,0,0,0,0,0,0],"id":5,"left_children":[1,3,5,7,9,-1,11,13,15,17,19,21,23,25,27,29,31,33,35,37,39,41,43,45,47,49,-1,-1,-1,-1,51,-1,53,-1,-1,55,57,59,-1,61,63,-1,65,67,69,71,73,-1,75,-1,-1,-1,-1,-1,-1,-1,-1,-1,-1,-1,-1,-1,-1,-1,-1,-1,-1,-1,-1,-1,-1,-1,-1,-1,-1,-1,-1],"loss_changes":[4.509675E3,1.8151367E3,3.1616333E2,2.1848389E2,7.661111E3,0E0,1.7083104E2,4.0148163E-1,7.2875977E0,5.7950195E2,5.2543945E0,5.4200592E1,1.1130371E0,5.5160522E-3,4.1807175E-2,1.8280336E1,4.8500977E0,1.202858E1,2.5384131E2,2.668152E-1,2.974121E0,4.7416687E-2,5.544906E1,7.477598E0,4.885376E0,3.214264E-2,0E0,0E0,0E0,0E0,4.3708134E0,0E0,6.77417E0,0E0,0E0,1.1346631E2,3.3418777E1,4.3466187E-1,0E0,1.5876465E0,2.3339844E-1,0E0,6.659775E-1,3.319876E1,7.5556946E-1,4.845951E0,2.5357822E-1,0E0,1.0515137E0,0E0,0E0,0E0,0E0,0E0,0E0,0E0,0E0,0E0,0E0,0E0,0E0,0E0,0E0,0E0,0E0,0E0,0E0,0E0,0E0,0E0,0E0,0E0,0E0,0E0,0E0,0E0,0E0],"parents":[2147483647,0,0,1,1,2,2,3,3,4,4,6,6,7,7,8,8,9,9,10,10,11,11,12,12,13,13,14,14,15,15,16,16,17,17,18,18,19,19,20,20,21,21,22,22,23,23,24,24,25,25,30,30,32,32,35,35,36,36,37,37,39,39,40,40,42,42,43,43,44,44,45,45,46,46,48,48],"right_children":[2,4,6,8,10,-1,12,14,16,18,20,22,24,26,28,30,32,34,36,38,40,42,44,46,48,50,-1,-1,-1,-1,52,-1,54,-1,-1,56,58,60,-1,62,64,-1,66,68,70,72,74,-1,76,-1,-1,-1,-1,-1,-1,-1,-1,-1,-1,-1,-1,-1,-1,-1,-1,-1,-1,-1,-1,-1,-1,-1,-1,-1,-1,-1,-1],"split_conditions":[9E2,NaN,9.01E2,8E0,1.8534E4,-3.4268987E-1,NaN,5E0,1.1E1,3E0,NaN,NaN,3.641E3,2E0,7E0,NaN,NaN,2E0,NaN,3.33E2,9.3E1,4.7539E4,1.8534E4,1.16E2,6.9E1,NaN,-3.9905843E-1,-3.4969646E-1,-2.885246E-1,3.129451E-1,1E1,3.1165808E-1,2.3E1,-4.0582293E-1,-2.4842617E-1,4E0,NaN,1.9E1,-3.5535243E-1,3E0,1.73E2,3.1196356E-1,NaN,NaN,6.7916E4,1.04E2,3.055E3,1.8195936E-1,1.8534E4,-3.833273E-1,-4.3045756E-1,-3.3825937E-1,1.6691232E-2,2.5254923E-1,3.0037093E-1,3.273267E-2,2.4253382E-1,1.1577415E-1,-4.163122E-3,-3.5413823E-1,-3.9044064E-1,-3.4412283E-1,-4.3037495E-1,-4.017329E-1,-3.812379E-1,3.1223002E-1,8.098544E-2,2.4115172E-1,-2.365623E-2,-3.5354716E-1,-1.3843337E-1,-9.865002E-1,-3.4328392E-1,5.5328574E-2,-8.377825E-2,-3.932933E-1,-3.3034074E-1],"split_indices":[3,1,3,3,4,0,2,3,3,3,2,1,3,3,3,1,1,3,2,3,3,3,4,4,4,2,0,0,0,0,3,0,3,0,0,3,2,3,0,3,3,0,2,2,3,4,3,0,4,0,0,0,0,0,0,0,0,0,0,0,0,0,0,0,0,0,0,0,0,0,0,0,0,0,0,0,0],"split_type":[0,1,0,0,0,0,1,0,0,0,1,1,0,0,0,1,1,0,1,0,0,0,0,0,0,1,0,0,0,0,0,0,0,0,0,0,1,0,0,0,0,0,1,1,0,0,0,0,0,0,0,0,0,0,0,0,0,0,0,0,0,0,0,0,0,0,0,0,0,0,0,0,0,0,0,0,0],"sum_hessian":[1.8659148E4,1.6292723E4,2.3664255E3,5.2484414E3,1.1044281E4,1.9299836E3,4.3644183E2,4.0531235E1,5.20791E3,8.862541E3,2.18174E3,2.945555E2,1.4188632E2,3.210482E1,8.4264145E0,4.572234E1,5.162188E3,1.9735805E2,8.665184E3,2.2815738E2,1.9535826E3,6.6883255E1,2.2767227E2,3.411192E1,1.077744E2,1.7720907E1,1.4383913E1,6.2887764E0,2.137638E0,3.1250113E1,1.4472228E1,3.172885E3,1.9893031E3,6.549754E1,1.318605E2,7.8148228E3,8.5036035E2,1.812784E2,4.6878967E1,1.7172543E3,2.3632837E2,5.550644E1,1.1376816E1,1.9222333E2,3.544894E1,2.4065527E1,1.0046393E1,1.5466529E0,1.06227745E2,3.643156E0,1.4077752E1,4.53052E0,9.941708E0,3.1824088E2,1.6710621E3,2.393392E2,7.5754834E3,4.7980444E2,3.7055588E2,4.1323933E1,1.3995447E2,1.9922527E1,1.6973318E3,1.3803621E2,9.829216E1,1.0097138E1,1.2796773E0,6.3724743E1,1.284986E2,3.3876476E1,1.5724617E0,1.0922238E0,2.2973303E1,1.3495802E0,8.696814E0,3.8341217E1,6.788653E1],"tree_param":{"num_deleted":"0","num_feature":"5","num_nodes":"77","size_leaf_vector":"1"}},{"base_weights":[2.9477113E-1,4.6633133E-1,-9.1530985E-1,2.926628E-1,6.7858475E-1,-3.3028978E-1,-1.8766475E-1,3.3292264E-1,-1.1582459E0,8.031771E-1,1.6042513E-1,5.4408985E-1,-5.9444225E-1,-8.529632E-1,3.706345E-1,-1.6176172E-1,-1.1806576E0,9.0378225E-1,6.520698E-1,2.0999189E-1,-3.754164E-1,1.0265021E0,2.860741E-1,-2.5665373E-1,-1.0269035E0,-2.162665E-1,-1.1008276E0,9.541679E-1,3.3897358E-1,-6.706393E-1,8.4517837E-1,-1.1551342E0,-1.2273425E0,-4.1176426E-1,9.1047627E-1,6.890487E-1,3.4672448E-1,3.113084E-1,-2.9731978E-2,5.618233E-1,-6.643906E-1,1.7654617E-1,1.0447909E0,4.104249E-1,-7.272027E-1,-6.966916E-1,-3.1993687E-2,-7.0075434E-1,-1.1263287E0,-3.690868E-1,3.654771E-2,-2.4808793E-1,-3.5055283E-1,3.0733994E-1,2.6764736E-1,1.1991265E-1,5.1318936E-2,3.6914408E-1,1.1012706E-1,-3.62864E-1,-3.4400812E-1,-3.262036E-1,-3.6987302E-1,5.258286E-2,-2.8489116E-1,2.780275E-1,1.3526416E-1,2.2961776E-1,1.8375768E-1,1.7090325E-1,1.5997436E-2,9.041493E-2,3.2952502E-1,-3.5226298E-3,-9.494867E-1,-7.03132E-1,2.586964E-1,-2.9090708E-1,3.1595677E-2,2.614462E-1,3.1537697E-1,1.4229144E-1,-2.132828E-1,-4.5874792E-1,1.1642974E-1,-1.4477539E-1,-3.8614345E-1,2.5029185E-1,-4.084632E-2,1.1794386E-2,-3.3110932E-1,-2.8400868E-1,-3.4735206E-1],"categories":[0,1,2,0,1,2,3,4,5,6,7,8,10,11,12,13,14,15,16,17,18,19,20,21,23,26,28,31,34,36,37,38,39,41,42,43,44,45,46,47,49,50,51,52,53,57,58,59,60,62,64,66,67,68,70,71,72,73,75,76,78,79,81,82,83,86,87,88,89,90,91,92,94,95,96,97,98,101,102,103,104,105,106,109,110,111,112,113,114,115,116,118,119,121,122,123,124,127,128,129,131,132,135,136,137,139,140,141,142,145,147,148,149,150,151,152,153,154,155,156,157,158,159,160,162,164,165,170,171,172,173,175,177,178,2,30,32,54,55,56,58,83,84,93,99,100,105,108,122,128,137,147,161,163,0,1,2,3,4,5,6,7,8,10,11,12,13,14,15,16,17,18,19,20,21,23,26,28,31,32,34,36,37,38,39,41,42,43,44,45,46,47,49,50,51,52,53,56,57,58,59,60,62,64,66,67,68,70,71,72,73,75,76,78,79,81,82,83,86,87,88,89,90,91,92,93,94,95,96,97,98,100,101,102,103,104,105,106,108,109,110,111,112,113,114,115,116,117,118,119,121,122,123,124,125,127,128,129,130,131,132,134,135,136,137,139,140,141,142,145,146,147,148,149,150,151,152,153,154,155,156,157,158,159,160,161,162,163,164,165,166,168,169,170,171,172,173,174,175,177,178,34,45,114,122,128,137,139,141,156,159,165,175,0,1,2,3,4,5,6,7,8,9,10,11,12,13,14,15,16,17,18,19,20,21,22,24,25,27,28,29,30,31,32,33,34,35,36,37,38,39,40,41,42,43,44,45,46,47,48,49,50,51,53,54,55,56,57,58,59,60,61,62,63,64,65,66,67,69,70,71,72,73,74,75,76,77,78,79,80,81,82,83,84,85,86,87,88,89,90,91,92,93,94,95,96,97,98,99,100,101,102,103,104,105,106,107,108,109,110,111,112,113,115,116,117,118,119,120,121,122,123,124,126,127,128,129,130,131,132,133,134,135,136,137,138,139,140,141,142,143,145,146,147,148,149,150,151,152,153,154,157,158,160,161,162,163,164,165,166,167,168,169,170,172,173,174,175,176,177,178,0,4,2,33,55,56,77,80,85,130,133,163,167,0,1,2,3,4,5,6,7,8,9,10,11,12,13,14,15,16,17,18,19,20,21,22,23,24,27,28,29,32,33,37,38,39,40,41,42,44,45,46,47,49,50,51,53,55,56,57,60,61,62,63,64,65,66,68,70,71,73,74,76,77,79,80,81,82,83,85,86,87,88,89,90,92,94,95,96,97,98,101,102,103,104,105,106,107,109,110,111,112,113,115,116,117,118,119,120,121,122,123,124,125,127,129,130,131,132,133,135,136,137,138,140,141,142,143,146,147,148,149,150,151,152,153,154,155,156,157,158,159,160,161,162,163,164,165,166,167,168,169,171,173,174,175,176,177,178,9,30,36,40,52,54,58,63,65,67,69,107,143,1,3,4,2,55,56,80,85,130,133,167,0,1,2,3,4,5,6,7,8,9,10,11,12,13,14,15,16,17,18,19,20,21,22,23,24,27,28,29,32,33,37,38,39,40,41,42,44,45,46,47,49,50,51,53,55,56,57,58,60,61,62,63,64,65,66,68,70,71,72,73,74,75,76,77,79,80,81,82,83,85,86,87,88,89,90,92,94,95,96,97,98,101,102,103,104,105,106,107,108,109,110,111,112,113,115,116,117,118,119,120,121,122,123,124,125,127,129,130,131,132,133,135,136,137,138,140,141,142,143,144,146,147,148,149,150,151,152,153,154,155,156,157,158,159,160,161,162,163,164,165,166,167,168,169,170,171,173,174,175,176,177,178,0,1,3,4,5,6,7,8,9,10,11,12,13,14,15,16,17,18,20,21,22,23,24,25,26,27,28,29,30,31,33,34,35,36,37,38,39,40,41,42,43,44,45,46,47,48,49,50,51,52,53,54,55,56,57,58,59,60,61,62,63,64,65,66,67,68,69,70,71,72,73,74,75,76,77,78,79,81,82,83,84,86,87,88,89,90,91,92,93,94,95,96,97,98,99,100,101,102,103,104,105,106,107,108,109,110,111,112,113,114,115,116,117,118,119,121,122,123,124,125,126,127,128,129,131,132,133,134,135,136,137,139,140,141,142,143,144,145,146,147,148,149,150,151,152,153,154,155,156,157,158,159,160,162,163,164,165,166,168,170,171,172,173,174,175,177,178,0,1,2,3,4,5,6,7,8,9,10,11,12,13,14,15,16,17,18,19,20,21,22,23,24,25,26,27,28,29,30,31,32,33,34,35,37,38,39,40,41,42,43,44,45,46,47,48,49,50,51,52,53,54,55,56,57,58,59,60,61,62,63,64,65,66,67,68,69,70,71,72,73,74,75,76,77,78,79,80,81,82,83,84,85,86,87,88,89,90,91,92,93,94,95,96,97,98,99,100,101,102,103,104,105,106,107,108,109,110,111,112,113,114,115,116,117,118,119,120,121,0,1,2,3,4,5,6,7,8,9,10,11,12,13,14,15,16,17,18,19,20,21,22,23,24,25,26,27,28,29,30,31,32,33,34,35,36,37,38,39,40,41,42,43,44,45,46,57,70,83,84,93,99,100,101,103,105,113,121,128,147,159,165,0,1,2,3,4,5,6,7,8,9,10,11,12,13,14,15,16,17,18,19,20,21,22,23,24,25,26,27,28,29,30,31,33,34,35,36,37,38,39,40,41,42,43,44,45,46,47,48,49,50,51,52,53,54,55,57,58,59,60,61,62,63,64,65,66,67,68,69,70,71,72,73,74,75,76,77,78,79,80,81,82,83,84,85,86,87,88,89,90,91,92,94,95,96,97,98,99,101,102,103,104,105,106,107,108,109,110,111,112,113,114,115,116,118,119,120,121,122,123,124,125,126,127,128,129,130,131,132,133,134,135,136,137,138,139,140,141,142,143,144,145,146,147,148,149,150,151,152,153,154,155,156,157,158,159,160,162,164,165,167,168,169,170,171,172,173,174,175,176,177,178,0,1,2,3,4,5,6,7,8,9,10,11,12,13,14,15,16,17,18,19,20,21,22,23,24,25,26,27,28,29,30,31,33,34,35,36,37,38,39,40,41,42,43,44,45,46,47,48,49,50,51,52,53,54,55,57,58,59,60,61,62,63,64,65,66,67,68,69,70,71,72,73,74,75,76,77,78,79,80,81,82,83,84,85,86,87,88,89,90,91,92,93,94,95,96,97,98,99,100,101,102,103,104,105,106,107,108,109,110,111,112,113,114,115,116,117,118,119,120,121,122,123,124,126,127,128,129,130,131,132,133,135,136,137,138,139,140,141,142,143,144,145,147,148,149,150,151,152,153,154,155,156,157,158,159,160,162,164,165,166,167,170,171,172,173,175,176,177,178,23,0,2,55,83,105,122,161,0,1,2,3,4,5,6,7,8,9,10,11,12,13,14,15,16,17,18,19,20,21,22,23,24,25,26,27,28,29,30,31,32,33,34,35,36,37,38,39,40,41,42,43,44,45,46,47,48,49,50,51,52,53,54,55,56,57,58,59,60,61,62,63,64,65,66,67,68,69,70,71,72,73,74,75,76,77,78,79,80,81,82,84,85,86,87,88,89,90,91,92,93,94,95,96,97,98,99,100,101,102,103,104,106,107,108,109,110,111,112,113,114,115,116,117,118,119,120,121,123,124,125,126,127,128,129,130,131,132,133,134,135,136,137,138,139,140,141,142,143,144,145,146,147,148,149,150,151,152,153,154,155,156,157,158,159,160,161,162,163,164,165,166,167,168,169,170,171,172,173,174,175,176,177,178],"categories_nodes":[3,4,6,9,10,11,12,13,14,16,19,26,27,28,30,31,35,36,38,43,45,46],"categories_segments":[0,3,134,154,301,313,481,483,494,640,653,656,664,816,983,1104,1167,1338,1507,1508,1510,1515],"categories_sizes":[3,131,20,147,12,168,2,11,146,13,3,8,152,167,121,63,171,169,1,2,5,176],"default_left":[0,1,0,1,0,0,1,0,0,0,1,0,1,1,0,0,1,0,0,1,0,0,1,0,0,0,1,0,0,0,0,1,0,0,0,0,0,0,1,0,0,0,0,1,0,1,0,0,1,0,0,0,0,0,0,0,0,0,0,0,0,0,0,0,0,0,0,0,0,0,0,0,0,0,0,0,0,0,0,0,0,0,0,0,0,0,0,0,0,0,0,0,0],"id":6,"left_children":[1,3,5,7,9,-1,11,13,15,17,19,21,23,25,27,29,31,33,35,37,39,41,43,45,47,49,51,53,55,-1,57,59,61,63,65,67,69,71,73,75,77,-1,79,81,83,85,87,89,91,-1,-1,-1,-1,-1,-1,-1,-1,-1,-1,-1,-1,-1,-1,-1,-1,-1,-1,-1,-1,-1,-1,-1,-1,-1,-1,-1,-1,-1,-1,-1,-1,-1,-1,-1,-1,-1,-1,-1,-1,-1,-1,-1,-1],"loss_changes":[3.0955176E3,4.8138574E2,2.5011816E2,4.195639E2,3.7939624E2,0E0,1.1204555E2,3.125517E2,4.326996E0,7.20105E1,3.0258553E1,1.6734093E1,3.5335464E1,3.3988205E1,1.25130615E2,8.99344E0,1.9741821E-1,2.5052734E1,2.1376648E1,2.5326584E1,2.613343E1,3.6294937E-1,1.1050367E1,1.34303E1,3.424263E0,2.0704124E1,2.8542786E0,1.5010681E0,6.551819E1,0E0,5.25336E-1,2.8533936E-2,2.5001526E-2,4.5540037E0,2.116626E1,9.858093E0,1.3382824E1,5.7195053E0,1.7472492E1,1.9898527E1,1.7330322E1,0E0,3.1902313E-2,5.6001606E0,8.587918E0,5.7923355E0,8.119792E0,7.407859E0,4.3795776E-1,0E0,0E0,0E0,0E0,0E0,0E0,0E0,0E0,0E0,0E0,0E0,0E0,0E0,0E0,0E0,0E0,0E0,0E0,0E0,0E0,0E0,0E0,0E0,0E0,0E0,0E0,0E0,0E0,0E0,0E0,0E0,0E0,0E0,0E0,0E0,0E0,0E0,0E0,0E0,0E0,0E0,0E0,0E0,0E0],"parents":[2147483647,0,0,1,1,2,2,3,3,4,4,6,6,7,7,8,8,9,9,10,10,11,11,12,12,13,13,14,14,15,15,16,16,17,17,18,18,19,19,20,20,21,21,22,22,23,23,24,24,25,25,26,26,27,27,28,28,30,30,31,31,32,32,33,33,34,34,35,35,36,36,37,37,38,38,39,39,40,40,42,42,43,43,44,44,45,45,46,46,47,47,48,48],"right_children":[2,4,6,8,10,-1,12,14,16,18,20,22,24,26,28,30,32,34,36,38,40,42,44,46,48,50,52,54,56,-1,58,60,62,64,66,68,70,72,74,76,78,-1,80,82,84,86,88,90,92,-1,-1,-1,-1,-1,-1,-1,-1,-1,-1,-1,-1,-1,-1,-1,-1,-1,-1,-1,-1,-1,-1,-1,-1,-1,-1,-1,-1,-1,-1,-1,-1,-1,-1,-1,-1,-1,-1,-1,-1,-1,-1,-1,-1],"split_conditions":[9E2,8E0,9.01E2,NaN,NaN,-3.3028978E-1,NaN,3E0,8E0,NaN,NaN,NaN,NaN,NaN,NaN,8E0,NaN,1.3E1,7.3E1,NaN,2.6E1,1.256E3,1.72E2,3.641E3,3.641E3,2E0,NaN,NaN,NaN,-6.706393E-1,NaN,NaN,3E0,9E0,1.3E2,NaN,NaN,8.13E2,NaN,1.5E1,7.4E1,1.7654617E-1,1.64E3,NaN,5.651E3,NaN,NaN,1.8534E4,8.13E2,-3.690868E-1,3.654771E-2,-2.4808793E-1,-3.5055283E-1,3.0733994E-1,2.6764736E-1,1.1991265E-1,5.1318936E-2,3.6914408E-1,1.1012706E-1,-3.62864E-1,-3.4400812E-1,-3.262036E-1,-3.6987302E-1,5.258286E-2,-2.8489116E-1,2.780275E-1,1.3526416E-1,2.2961776E-1,1.8375768E-1,1.7090325E-1,1.5997436E-2,9.041493E-2,3.2952502E-1,-3.5226298E-3,-9.494867E-1,-7.03132E-1,2.586964E-1,-2.9090708E-1,3.1595677E-2,2.614462E-1,3.1537697E-1,1.4229144E-1,-2.132828E-1,-4.5874792E-1,1.1642974E-1,-1.4477539E-1,-3.8614345E-1,2.5029185E-1,-4.084632E-2,1.1794386E-2,-3.3110932E-1,-2.8400868E-1,-3.4735206E-1],"split_indices":[3,4,3,2,0,0,0,3,4,0,0,0,2,0,0,3,0,3,3,2,4,3,4,3,3,3,0,0,0,0,0,0,3,4,3,0,0,4,0,4,4,0,3,2,3,0,0,4,4,0,0,0,0,0,0,0,0,0,0,0,0,0,0,0,0,0,0,0,0,0,0,0,0,0,0,0,0,0,0,0,0,0,0,0,0,0,0,0,0,0,0,0,0],"split_type":[0,0,0,1,1,0,1,0,0,1,1,1,1,1,1,0,1,0,0,1,0,0,0,0,0,0,1,1,1,0,1,1,0,0,0,1,1,0,1,0,0,0,0,1,0,1,1,0,0,0,0,0,0,0,0,0,0,0,0,0,0,0,0,0,0,0,0,0,0,0,0,0,0,0,0,0,0,0,0,0,0,0,0,0,0,0,0,0,0,0,0,0,0],"sum_hessian":[1.4910786E4,1.3059305E4,1.8514811E3,7.1825205E3,5.876784E3,1.4751034E3,3.7637775E2,6.9886157E3,1.9390472E2,4.737608E3,1.1391766E3,1.3447069E2,2.4190707E2,2.1537892E2,6.773237E3,4.2688093E0,1.8963593E2,2.844007E3,1.8936006E3,1.0427333E3,9.644329E1,4.6837914E1,8.7632774E1,1.3583813E2,1.0606894E2,6.0362263E1,1.5501666E2,3.485536E2,6.424683E3,1.3873354E0,2.8814738E0,1.2293996E2,6.669596E1,1.4391931E1,2.8296152E3,1.6890253E3,2.0457535E2,7.329533E2,3.0978E2,2.2723686E1,7.3719604E1,1.9040447E0,4.493387E1,7.806456E1,9.568216E0,4.5897366E1,8.9940765E1,2.4818266E1,8.125067E1,1.5080224E1,4.528204E1,3.0770922E1,1.24245735E2,1.6321307E2,1.853405E2,4.7180723E3,1.706611E3,1.578042E0,1.3034319E0,1.6125927E1,1.06814026E2,2.7018034E0,6.399416E1,6.887848E0,7.504082E0,2.7327808E3,9.683441E1,8.4541284E2,8.436124E2,1.16232086E2,8.834327E1,7.238534E2,9.09992E0,3.0803262E2,1.7473608E0,2.1170397E0,2.0606646E1,5.2779778E1,2.093983E1,1.7142733E0,4.3219593E1,7.3868195E1,4.196366E0,5.5617003E0,4.0065165E0,3.3710094E1,1.2187268E1,9.638317E0,8.030245E1,8.755443E0,1.6062824E1,1.2219028E1,6.903165E1],"tree_param":{"num_deleted":"0","num_feature":"5","num_nodes":"93","size_leaf_vector":"1"}},{"base_weights":[2.4394289E-1,3.9337194E-1,-7.697883E-1,2.3562731E-1,6.1177826E-1,6.6098254E-3,-9.746226E-1,2.603318E-1,-1.1015711E0,7.96763E-1,2.6189184E-1,2.5313854E-1,-6.2438864E-1,7.439541E-1,-1.0195348E0,-7.5462055E-1,2.899304E-1,-2.2156158E-1,-1.1349254E0,8.8052654E-1,6.817677E-1,3.9886197E-1,-8.474216E-3,9.834872E-1,1.4893836E-1,-4.0752125E-1,-1.2157794E0,9.349524E-1,-3.7181923E-1,-1.0457972E0,-6.508288E-1,-2.3282476E-1,-9.8763E-1,9.1313124E-1,2.6278389E-1,-3.8509464E-1,7.147747E-1,-3.285545E-1,-3.438766E-1,9.026714E-1,2.4376012E-1,-2.6017275E-1,6.933896E-1,5.1858366E-1,2.4584737E-1,7.448581E-2,-2.1088937E-1,5.697252E-1,1.0396358E0,2.888412E-1,-5.9664883E-2,-3.6518693E-1,-5.7200855E-1,-1.3549358E0,3.3469254E-1,3.795003E-1,9.9962205E-1,-7.032091E-1,-1.0706582E0,6.618363E-1,-1.030263E0,-3.5076293E-1,7.219981E-3,-2.1605483E-1,-3.192039E-1,1.0628831E-1,2.7897602E-1,8.471131E-2,-5.382352E-2,5.474556E-2,3.4254947E-1,2.8822494E-1,2.546676E-1,-1.3687015E0,2.6004833E-1,-3.34509E-2,-5.3988034E-1,2.3681645E-1,1.9576107E-1,1.5808634E-1,-6.737988E-1,6.760277E-2,1.415087E-1,5.149606E-2,-7.676737E-2,-1.3800116E-1,-3.9687525E-2,3.2625148E-1,7.5525485E-2,1.5841812E-1,3.2264972E-1,1.18394606E-1,-1.6220516E-1,9.009636E-2,-3.152881E-1,-1.8630847E-1,-3.757673E-2,-5.061169E-1,-2.949507E-1,2.640801E-1,-1.4126478E-1,3.0791715E-1,2.4679768E-1,-1.484699E-1,-3.2793945E-1,-3.216512E-1,-2.5704384E-1,2.630875E-1,-1.8387221E-1,5.5676907E-2,-3.1671104E-1],"categories":[0,1,2,0,1,2,3,4,5,6,7,8,10,11,13,14,15,16,17,18,19,20,21,23,26,27,28,29,31,34,36,37,38,39,40,41,42,43,44,45,46,47,48,49,50,51,52,53,57,58,59,60,61,62,64,66,67,68,71,72,73,75,76,78,79,81,82,83,86,87,88,89,90,91,92,94,95,96,97,98,101,102,103,104,105,106,109,110,111,112,113,114,115,116,118,119,121,122,123,124,127,128,129,130,131,132,135,136,137,139,140,141,142,145,146,147,148,149,150,151,152,153,154,155,156,157,158,159,160,162,164,165,166,170,171,172,173,175,177,178,2,19,32,70,92,93,103,122,128,134,137,139,147,161,0,1,2,4,5,0,1,2,3,4,5,6,7,8,10,11,13,14,15,16,17,18,19,20,21,23,26,27,28,29,31,32,34,36,37,38,39,40,41,42,43,44,45,46,47,48,49,50,51,52,53,56,57,58,59,60,61,62,64,66,67,68,70,71,72,73,75,76,78,79,81,82,83,86,87,88,89,90,91,92,93,94,95,96,97,98,101,102,103,104,105,106,108,109,110,111,112,113,114,115,116,118,119,121,122,123,124,125,127,128,129,130,131,132,134,135,136,137,139,140,141,142,145,146,147,148,149,150,151,152,153,154,155,156,157,158,159,160,161,162,163,164,165,166,168,169,170,171,172,173,174,175,176,177,178,0,3,4,5,6,7,8,9,10,11,12,13,14,15,16,17,18,19,20,21,22,23,24,25,26,27,28,29,30,31,32,33,34,35,36,37,38,39,40,41,42,43,44,45,46,47,48,49,50,51,52,53,54,55,56,57,58,59,60,61,62,63,64,65,66,68,69,70,71,72,73,74,75,76,77,78,79,80,81,82,83,84,85,86,87,88,89,90,91,92,93,94,95,96,97,98,99,100,101,102,104,105,106,107,108,109,110,111,112,113,114,115,116,117,118,119,120,121,123,124,125,126,127,128,129,131,132,133,134,135,136,137,138,140,141,142,143,144,145,148,149,150,151,152,153,154,155,156,157,158,159,160,161,162,163,164,165,167,168,169,170,171,172,173,174,175,176,177,178,0,1,2,3,4,5,6,7,8,9,10,11,12,13,14,15,16,17,18,19,20,21,22,24,25,26,27,28,29,31,32,33,34,35,36,37,38,39,40,41,42,43,44,45,46,47,48,49,50,51,52,53,54,55,56,57,58,59,60,61,62,63,64,65,66,67,68,69,70,71,72,73,74,75,76,77,78,79,80,81,82,83,84,85,86,87,88,89,90,91,92,93,94,95,96,97,98,100,101,102,103,104,105,106,107,108,109,110,111,112,113,114,115,116,117,118,119,120,121,122,123,124,125,126,127,128,129,131,132,133,134,135,136,137,139,140,141,142,143,144,145,146,147,148,149,150,151,152,153,154,155,156,157,158,160,161,162,163,164,165,166,167,168,169,170,172,173,175,177,178,0,1,2,4,58,2,33,55,56,77,80,85,130,163,167,0,1,2,3,4,5,6,7,8,9,10,11,12,13,14,15,16,17,18,19,20,21,22,23,24,27,28,29,32,33,34,37,38,39,40,41,42,44,45,46,47,48,49,50,51,53,55,56,57,60,61,62,63,64,65,66,68,70,71,73,74,75,76,77,79,80,81,82,83,85,86,87,88,89,90,92,94,95,96,97,98,101,102,103,104,105,106,107,109,110,111,112,113,115,116,117,118,119,120,121,122,123,124,125,127,128,129,130,131,132,133,135,136,137,138,139,140,141,142,143,146,147,148,149,150,151,152,153,154,155,156,157,158,159,160,161,162,163,164,165,166,167,168,169,171,173,174,175,176,177,178,3,4,0,1,4,2,55,56,80,85,130,167,6,22,24,55,56,87,125,129,0,1,2,3,4,5,6,7,8,9,10,11,12,13,14,15,16,17,18,19,20,21,22,23,24,25,26,27,28,29,30,31,32,33,34,35,36,0,1,2,3,4,5,6,7,8,10,11,12,13,14,15,16,17,18,19,20,21,23,26,27,28,29,31,32,33,34,36,37,38,39,40,41,42,43,44,45,46,47,48,49,50,51,52,53,56,57,58,59,60,61,62,64,66,67,68,70,71,72,73,75,76,78,79,80,81,82,83,85,86,87,88,89,90,91,92,93,94,95,96,97,98,99,101,102,103,104,105,106,108,109,110,111,112,113,114,115,116,118,119,121,122,123,124,125,127,128,129,130,131,132,134,135,136,137,139,140,141,142,145,146,147,148,149,150,151,152,153,154,155,156,157,158,159,160,161,162,163,164,165,166,168,169,170,171,172,173,174,175,176,177,178,0,1,2,3,4,5,6,7,8,9,10,11,12,13,14,15,16,17,18,19,20,21,22,23,24,25,26,27,28,29,30,31,32,33,34,35,36,37,38,39,40,41,42,43,44,45,46,47,48,49,50,51,52,53,54,55,56,57,58,59,60,61,62,63,64,65,66,67,68,69,70,71,72,73,74,75,76,77,78,79,80,81,82,83,84,85,86,87,88,89,90,91,92,93,94,95,96,97,98,99,100,101,102,103,104,105,106,107,108,109,110,111,112,113,114,115,116,117,118,119,120,121,122,123,124,125,126,127,128,129,130,131,132,133,134,135,136,137,138,139,140,141,142,143,144,145,146,147,148,149,150,151,152,153,154,155,156,157,158,159,160,161,162,163,164,165,166,167,168,169,170,171,172,173,174,175,177,178,147,31,34,114,128,137,141,159,165,175,0,1,2,3,4,5,6,7,8,9,10,11,12,13,14,15,16,17,18,19,20,21,22,23,24,25,26,27,28,29,30,31,32,33,34,35,36,37,38,39,40,41,42,43,44,45,46,47,48,49,50,51,52,53,54,55,56,57,58,59,60,61,62,63,64,65,66,67,68,69,70,71,72,73,74,75,76,77,78,79,80,81,82,83,84,85,86,87,88,89,90,91,92,93,94,95,96,97,98,99,100,101,102,103,104,105,106,107,108,109,110,111,112,113,114,115,116,117,118,119,120,121,122,123,124,125,126,127,128,129,131,132,133,134,135,136,137,138,139,140,141,142,143,144,145,146,147,148,149,150,151,152,153,154,155,156,157,158,159,160,161,162,163,164,165,166,167,168,169,170,171,172,173,174,175,176,177,178,0,1,2,3,4,5,6,7,8,9,10,11,12,13,14,15,16,17,18,19,20,21,22,23,24,25,26,27,28,29,30,31,32,34,35,36,37,38,39,40,41,42,43,44,45,46,47,48,49,50,51,52,53,54,55,57,59,60,61,62,63,64,65,66,67,68,69,70,71,72,73,74,75,76,78,79,81,82,83,84,86,87,88,89,90,91,92,93,94,95,96,97,98,99,100,101,102,103,104,105,106,107,108,109,110,111,112,113,114,115,116,117,118,119,120,121,122,123,124,126,127,128,129,130,131,132,134,135,136,137,138,139,140,141,142,143,144,145,146,147,148,149,150,151,152,153,154,155,156,157,158,159,160,161,162,164,165,166,0,1,55,0,1,2,3,4,5,6,7,8,9,10,11,12,13,14,15,16,17,18,19,20,21,22,23,24,25,26,27,28,29,30,31,32,33,34,35,36,37,38,39,40,41,42,43,44,45,46,47,48,49,50,51,52,53,54,55,56,57,58,59,60,61,62,63,64,65,66,67,68,69,70,71,72,73,74,75,76,77,78,79,80,81,82,83,84,85,86,87,88,89,90,91,92,93,94,95,96,97,98,99,100,101,102,103,104,105,106,107,108,109,110,111,112,113,114,115,116,117,118,119,120,121,122,123,124,125,126,127,128,129,130,131,132,133,134,135,136,137,138,139,140,141,142,143,144,145,146,147,148,149,150,151,152,153,154,155,156,157,158],"categories_nodes":[3,4,5,6,9,10,11,12,13,15,16,22,30,32,34,36,39,42,43,45,47,49,57,59,60],"categories_segments":[0,3,140,154,159,309,478,648,652,653,663,814,816,819,826,834,871,1026,1204,1205,1214,1392,1550,1552,1553],"categories_sizes":[3,137,14,5,150,169,170,4,1,10,151,2,3,7,8,37,155,178,1,9,178,158,2,1,159],"default_left":[0,1,0,1,0,1,1,0,0,0,0,0,1,1,0,1,0,0,0,0,0,0,1,0,0,0,0,0,0,0,1,0,1,0,1,0,1,0,0,0,0,0,0,1,0,1,0,0,0,0,0,0,0,0,0,0,0,1,0,1,0,0,0,0,0,0,0,0,0,0,0,0,0,0,0,0,0,0,0,0,0,0,0,0,0,0,0,0,0,0,0,0,0,0,0,0,0,0,0,0,0,0,0,0,0,0,0,0,0,0,0],"id":7,"left_children":[1,3,5,7,9,11,13,15,17,19,21,23,25,27,29,31,33,35,37,39,41,43,45,47,49,51,53,55,-1,57,59,61,63,65,67,-1,69,-1,-1,71,73,75,77,79,81,83,85,87,89,91,93,95,-1,97,-1,99,101,103,105,107,109,-1,-1,-1,-1,-1,-1,-1,-1,-1,-1,-1,-1,-1,-1,-1,-1,-1,-1,-1,-1,-1,-1,-1,-1,-1,-1,-1,-1,-1,-1,-1,-1,-1,-1,-1,-1,-1,-1,-1,-1,-1,-1,-1,-1,-1,-1,-1,-1,-1,-1],"loss_changes":[1.9702922E3,3.905454E2,2.657395E2,2.1744217E2,3.0768298E2,5.426816E1,1.0206555E2,1.9415005E2,3.499527E0,2.9942017E1,6.088633E1,1.9087412E1,1.2559681E1,1.27831955E1,1.2462769E1,2.226117E1,1.06230774E2,4.3793793E0,2.6504517E-2,2.5365234E1,1.435144E1,1.9988937E1,9.2844515E0,7.156048E-1,6.4078727E0,4.5390263E0,8.5584755E0,1.0963974E0,0E0,1.0229126E1,4.2712265E1,1.3605988E1,2.5706406E0,2.4524841E0,5.212039E1,0E0,5.2844536E-1,0E0,0E0,5.4140625E0,1.8122635E2,3.6550694E0,5.0670166E0,1.4191788E1,2.2164211E0,1.2590247E1,3.145804E0,6.1784077E-1,4.9399567E-1,1.1539075E1,3.1464136E1,4.282714E0,0E0,3.030548E0,0E0,1.3871038E0,1.1332893E-1,6.6036873E0,3.441162E-1,5.2857046E0,2.061325E0,0E0,0E0,0E0,0E0,0E0,0E0,0E0,0E0,0E0,0E0,0E0,0E0,0E0,0E0,0E0,0E0,0E0,0E0,0E0,0E0,0E0,0E0,0E0,0E0,0E0,0E0,0E0,0E0,0E0,0E0,0E0,0E0,0E0,0E0,0E0,0E0,0E0,0E0,0E0,0E0,0E0,0E0,0E0,0E0,0E0,0E0,0E0,0E0,0E0,0E0],"parents":[2147483647,0,0,1,1,2,2,3,3,4,4,5,5,6,6,7,7,8,8,9,9,10,10,11,11,12,12,13,13,14,14,15,15,16,16,17,17,18,18,19,19,20,20,21,21,22,22,23,23,24,24,25,25,26,26,27,27,29,29,30,30,31,31,32,32,33,33,34,34,36,36,39,39,40,40,41,41,42,42,43,43,44,44,45,45,46,46,47,47,48,48,49,49,50,50,51,51,53,53,55,55,56,56,57,57,58,58,59,59,60,60],"right_children":[2,4,6,8,10,12,14,16,18,20,22,24,26,28,30,32,34,36,38,40,42,44,46,48,50,52,54,56,-1,58,60,62,64,66,68,-1,70,-1,-1,72,74,76,78,80,82,84,86,88,90,92,94,96,-1,98,-1,100,102,104,106,108,110,-1,-1,-1,-1,-1,-1,-1,-1,-1,-1,-1,-1,-1,-1,-1,-1,-1,-1,-1,-1,-1,-1,-1,-1,-1,-1,-1,-1,-1,-1,-1,-1,-1,-1,-1,-1,-1,-1,-1,-1,-1,-1,-1,-1,-1,-1,-1,-1,-1,-1],"split_conditions":[2.99E2,8E0,1.8534E4,NaN,NaN,NaN,NaN,3E0,8E0,NaN,NaN,NaN,NaN,NaN,9.99E2,NaN,NaN,8E0,1.9E1,1.3E2,1.3E1,4.2E1,NaN,2.7E1,2.424E3,6.7916E4,1.1326E4,9.01E2,-3.7181923E-1,8.29E2,NaN,2E0,NaN,1.3E1,NaN,-3.8509464E-1,NaN,-3.285545E-1,-3.438766E-1,NaN,8.6E1,1E1,NaN,NaN,1.28E2,NaN,3.7E1,NaN,3.87E2,NaN,8.11E2,3.641E3,-5.7200855E-1,3.055E3,3.3469254E-1,8.29E2,6.1736E4,NaN,9.01E2,NaN,NaN,-3.5076293E-1,7.219981E-3,-2.1605483E-1,-3.192039E-1,1.0628831E-1,2.7897602E-1,8.471131E-2,-5.382352E-2,5.474556E-2,3.4254947E-1,2.8822494E-1,2.546676E-1,-1.3687015E0,2.6004833E-1,-3.34509E-2,-5.3988034E-1,2.3681645E-1,1.9576107E-1,1.5808634E-1,-6.737988E-1,6.760277E-2,1.415087E-1,5.149606E-2,-7.676737E-2,-1.3800116E-1,-3.9687525E-2,3.2625148E-1,7.5525485E-2,1.5841812E-1,3.2264972E-1,1.18394606E-1,-1.6220516E-1,9.009636E-2,-3.152881E-1,-1.8630847E-1,-3.757673E-2,-5.061169E-1,-2.949507E-1,2.640801E-1,-1.4126478E-1,3.0791715E-1,2.4679768E-1,-1.484699E-1,-3.2793945E-1,-3.216512E-1,-2.5704384E-1,2.630875E-1,-1.8387221E-1,5.5676907E-2,-3.1671104E-1],"split_indices":[3,4,4,2,0,0,2,3,4,0,0,0,2,0,3,0,0,3,3,3,3,4,2,4,3,3,3,3,0,3,2,3,0,3,0,0,0,0,0,0,4,4,0,0,3,0,3,0,3,0,4,3,0,3,0,3,3,2,3,0,0,0,0,0,0,0,0,0,0,0,0,0,0,0,0,0,0,0,0,0,0,0,0,0,0,0,0,0,0,0,0,0,0,0,0,0,0,0,0,0,0,0,0,0,0,0,0,0,0,0,0],"split_type":[0,0,0,1,1,1,1,0,0,1,1,1,1,1,0,1,1,0,0,0,0,0,1,0,0,0,0,0,0,0,1,0,1,0,1,0,1,0,0,1,0,0,1,1,0,1,0,1,0,1,0,0,0,0,0,0,0,1,0,1,1,0,0,0,0,0,0,0,0,0,0,0,0,0,0,0,0,0,0,0,0,0,0,0,0,0,0,0,0,0,0,0,0,0,0,0,0,0,0,0,0,0,0,0,0,0,0,0,0,0,0],"sum_hessian":[1.3006808E4,1.1335857E4,1.67095E3,6.582017E3,4.7538403E3,3.4881824E2,1.3221317E3,6.462637E3,1.1937993E2,3.109712E3,1.6441285E3,2.5083144E2,9.79868E1,3.36638E1,1.2884679E3,1.8311246E2,6.2795244E3,4.3651786E0,1.1501475E2,1.7990994E3,1.3106125E3,1.0912706E3,5.5285785E2,3.129716E1,2.1953427E2,7.172035E1,2.6266449E1,3.0716406E1,2.947394E0,1.2027599E3,8.570803E1,5.6539513E1,1.2657294E2,2.6208984E2,6.0174346E3,2.0417986E0,2.3233802E0,2.5949509E1,8.906524E1,1.7386266E3,6.047284E1,1.5968351E1,1.2946442E3,6.122139E2,4.790567E2,3.9214804E2,1.6070984E2,3.7664409E0,2.7530718E1,1.314009E2,8.813337E1,6.977497E1,1.9453827E0,2.4794922E1,1.4715271E0,3.2177184E0,2.7498688E1,8.141631E1,1.1213435E3,1.921568E1,6.6492355E1,1.2156694E1,4.4382816E1,2.816516E1,9.840778E1,7.6571946E0,2.5443266E2,5.7622036E3,2.552311E2,1.0470531E0,1.2763273E0,8.3574054E2,9.0288605E2,6.925501E0,5.354734E1,1.4581656E1,1.3866955E0,3.863663E2,9.082779E2,6.10382E2,1.8319283E0,4.392201E2,3.9836617E1,3.0303247E2,8.9115555E1,3.8520733E1,1.221891E2,1.4144754E0,2.3519654E0,1.8243141E0,2.5706404E1,1.1654584E2,1.48550625E1,6.4664536E1,2.3468836E1,3.375237E1,3.60226E1,1.3058227E1,1.1736694E1,2.0247602E0,1.192958E0,2.3801792E1,3.6968966E0,5.3096184E1,2.8320131E1,1.1133884E3,7.955088E0,1.6446514E1,2.7691665E0,1.3601395E0,6.513221E1],"tree_param":{"num_deleted":"0","num_feature":"5","num_nodes":"111","size_leaf_vector":"1"}},{"base_weights":[1.9730169E-1,9.6052444E-1,-1.0695961E-1,-1.0665566E0,9.7979E-1,9.655848E-3,-8.719477E-1,3.0420285E-1,-1.1642444E0,3.0697012E-1,9.1348606E-1,4.8612613E-2,-2.4458283E-1,-3.1579322E-1,-2.7655974E-1,-6.236463E-1,-1.250756E0,-3.1982878E-1,9.31039E-1,-6.04356E-1,6.456623E-2,-6.820136E-2,-6.0656416E-1,-4.342072E-2,-9.216407E-1,-3.4408537E-1,1.0837379E-1,-3.4343767E-1,-1.3133396E0,6.235686E-1,-1.4203262E0,7.399671E-1,9.6766794E-1,-2.3469773E-1,-9.549442E-1,3.47999E-1,9.216732E-3,3.575263E-1,-1.5230541E-1,-5.836064E-1,-2.7795281E0,4.590635E-1,-2.5386485E-1,-6.680909E-1,-1.0543799E0,-2.7785906E-1,-4.0161446E-1,9.846173E-2,2.5340435E-1,-6.834771E-1,-1.07042745E-1,2.741498E-1,-6.7255104E-1,2.9426265E-1,2.1292152E-1,-3.2596952E-1,2.3587353E-3,-3.3427128E-1,-2.5673735E-1,-5.4418463E-2,1.4541131E-1,-1.8738955E-1,1.98696E-2,1.3673142E-1,-8.074208E-2,-6.2412675E-2,1.2836476E-1,-1.4525346E-1,-2.61434E-1,-1.8869482E-1,-1.2814453E0,3.0249488E-1,8.839083E-2,-6.258892E-2,-3.2852244E-1,5.298676E-2,-2.1980438E-1,-2.3873104E-1,-3.2341373E-1],"categories":[2,0,0,0,1,2,3,4,5,6,7,8,9,10,11,12,13,14,15,16,17,18,19,20,21,22,23,24,25,26,27,28,29,30,31,32,33,34,35,36,37,38,39,40,41,42,43,44,45,46,47,48,49,50,51,52,53,54,55,56,77,85,130,133,163,176,32,33,35,36,50,52,55,56,72,74,77,84,92,93,99,100,103,120,128,130,138,141,161,0,4,0,1,2,3,4,5,6,7,8,9,10,11,12,13,14,15,16,17,18,19,20,21,22,23,24,25,26,27,28,29,30,31,32,33,34,35,36,37,38,39,40,41,42,43,44,45,46,47,48,49,50,51,52,53,54,55,56,57,58,59,60,61,62,63,64,65,66,67,68,69,70,71,72,73,74,75,76,77,78,79,80,81,82,83,84,85,86,87,88,89,90,91,92,93,94,95,96,97,98,99,100,101,102,103,104,105,106,107,108,109,110,111,112,113,114,115,116,117,118,119,120,121,122,123,124,125,126,127,128,129,130,131,132,133,134,135,136,137,138,139,140,141,142,143,144,145,146,147,148,149,150,151,152,153,154,155,156,157,158,159,160,161,162,163,164,165,166,167,168,169,170,171,172,173,2,77,80,85,130,167,0,1,2,3,4,5,6,7,8,9,10,11,12,13,14,15,16,17,18,19,20,21,22,23,25,26,27,28,29,31,32,33,35,36,37,38,39,40,41,42,43,44,45,46,47,48,49,50,51,52,53,54,55,56,58,60,61,62,63,64,65,68,69,70,71,72,73,74,75,76,77,78,79,80,81,82,83,84,85,86,87,88,89,90,91,92,93,94,95,96,97,98,99,100,101,102,103,104,105,106,107,108,109,110,111,112,113,115,116,117,118,119,120,121,122,123,124,126,127,128,129,130,131,132,135,136,137,138,139,140,141,142,144,145,146,148,149,150,151,152,153,154,155,156,157,158,159,160,161,162,163,164,165,166,167,168,171,172,173,174,176,177,178,50,128,0,1,2,3,4,5,6,7,8,9,10,11,12,13,14,15,16,17,18,19,20,21,22,24,25,26,27,28,29,30,32,33,34,35,36,37,38,39,40,41,42,43,44,45,46,47,48,49,50,51,52,53,54,55,56,57,59,60,61,62,63,64,65,66,68,69,70,71,72,73,74,75,76,78,79,80,81,82,83,84,85,86,87,88,89,90,91,92,93,94,95,96,97,98,101,102,103,104,105,106,107,108,109,110,111,112,113,115,116,117,118,119,120,121,122,123,124,125,126,127,128,129,130,131,132,134,135,136,137,139,140,142,147,161,163,176,0,1,2,3,4,5,6,7,8,9,10,11,12,13,14,15,16,17,18,19,20,21,22,23,24,25,26,27,28,29,30,31,32,33,34,35,36,37,38,39,40,41,42,43,44,45,46,47,48,49,50,51,52,53,54,55,56,57,58,59,60,61,62,63,64,65,66,67,68,69,70,71,72,73,74,75,76,77,78,79,80,81,82,83,84,85,86,87,88,89,90,91,92,93,94,95,96,97,98,99,100,101,102,103,104,105,106,107,108,109,110,111,112,113,114,115,116,117,118,119,120,121,122,123,124,125,126,127,128,129,130,131,132,163,130,0,1,2,3,4,5,6,7,8,9,10,11,12,13,14,15,16,17,18,19,20,21,22,23,24,25,26,27,28,29,30,31,34,35,36,37,38,39,40,41,42,43,44,45,46,47,48,49,50,51,52,53,54,55,56,57,58,59,60,61,62,63,64,65,66,67,68,69,70,71,73,74,75,76,77,78,79,80,81,82,83,84,85,86,87,88,89,90,91,92,93,94,95,96,97,98,99,100,101,102,103,104,105,106,107,108,109,110,111,112,113,114,115,116,117,118,119,120,121,122,123,124,125,126,127,128,129,131,132,134,135,136,137,138,139,140,141,142,143,144,145,146,147,148,149,150,151,152,153,154,155,156,157,158,159,160,162,164,165,166,167,168,0,1,3,4,5,6,7,8,9,10,11,12,13,14,15,16,17,18,19,20,21,22,23,24,25,26,27,28,29,31,34,35,36,37,38,39,40,41,42,43,44,45,46,47,48,49,51,52,53,54,55,56,57,60,61,62,63,64,65,66,67,68,69,70,71,73,75,76,78,79,81,82,83,84,86,87,88,89,90,91,92,93,94,95,96,97,98,99,100,101,102,103,104,105,106,107,108,109,110,111,112,113,114,115,116,117,118,119,121,122,123,124,125,126,127,128,129,131,132,134,135,136,137,138,139,140,141,142,143,144,145,147,148,149,150,151,152,153,154,155,156,157,158,159,160,162,164,165,166,168,170,171,172,173,175,177,178,0,1,2,3,4,5,6,7,8,9,10,11,12,13,14,15,16,17,18,19,20,21,22,24,25,26,27,28,29,30,32,33,34,35,36,37,38,39,40,41,42,43,44,45,46,47,48,49,50,51,52,53,54,55,56,57,58,59,60,61,62,63,64,65,66,67,68,69,70,71,72,73,74,75,76,77,78,79,80,81,82,83,84,85,86,87,88,89,90,91,92,93,94,95,96,97,98,99,100,101,102,103,104,105,106,107,108,109,110,111,112,113,114,115,116,117,118,119,120,121,122,123,124,125,126,127,128,129,130,131,132,133,134,135,136,137,138,139,140,141,142,143,144,145,146,147,148,149,150,151,152,153,154,155,156,157,158,160,161,162,163,164,165,166,167,168,169,170,172,173,174,175,176,177,178,58,93],"categories_nodes":[0,3,4,8,12,14,17,19,21,22,23,28,30,31,32,41,44],"categories_segments":[0,1,2,3,66,89,91,265,271,434,436,572,706,707,869,1026,1201],"categories_sizes":[1,1,1,63,23,2,174,6,163,2,136,134,1,162,157,175,2],"default_left":[1,0,0,1,1,0,0,0,1,0,0,0,1,0,1,0,0,0,0,1,0,0,1,0,0,0,0,0,0,0,1,0,0,0,0,0,0,0,0,0,0,0,0,0,1,0,0,0,0,0,0,0,0,0,0,0,0,0,0,0,0,0,0,0,0,0,0,0,0,0,0,0,0,0,0,0,0,0,0],"id":8,"left_children":[1,3,5,7,9,11,13,-1,15,-1,17,19,21,-1,23,25,27,29,31,33,35,37,39,41,43,-1,-1,-1,45,47,49,51,53,55,57,59,61,63,65,67,69,71,73,75,77,-1,-1,-1,-1,-1,-1,-1,-1,-1,-1,-1,-1,-1,-1,-1,-1,-1,-1,-1,-1,-1,-1,-1,-1,-1,-1,-1,-1,-1,-1,-1,-1,-1,-1],"loss_changes":[2.686753E3,1.2880615E2,7.379571E2,6.3357353E0,9.390625E0,7.109329E1,1.1771472E2,0E0,1.3720055E0,0E0,2.8003784E1,6.484026E1,6.0892357E1,0E0,3.8318577E1,2.1387565E0,1.3922882E-1,1.8875048E1,8.910156E0,1.9234104E1,9.531685E1,2.2962837E1,1.555513E1,1.9795206E1,2.2622375E0,0E0,0E0,0E0,1.3154411E-1,6.339798E-1,7.638567E0,1.0643096E2,3.6309204E0,1.4936602E1,1.1840439E0,7.184129E1,1.8370288E2,6.516017E0,1.7319214E1,8.8413315E0,1.0410151E1,4.984454E0,5.015867E0,1.2737331E0,2.5419998E-1,0E0,0E0,0E0,0E0,0E0,0E0,0E0,0E0,0E0,0E0,0E0,0E0,0E0,0E0,0E0,0E0,0E0,0E0,0E0,0E0,0E0,0E0,0E0,0E0,0E0,0E0,0E0,0E0,0E0,0E0,0E0,0E0,0E0,0E0],"parents":[2147483647,0,0,1,1,2,2,3,3,4,4,5,5,6,6,8,8,10,10,11,11,12,12,14,14,15,15,16,16,17,17,18,18,19,19,20,20,21,21,22,22,23,23,24,24,28,28,29,29,30,30,31,31,32,32,33,33,34,34,35,35,36,36,37,37,38,38,39,39,40,40,41,41,42,42,43,43,44,44],"right_children":[2,4,6,8,10,12,14,-1,16,-1,18,20,22,-1,24,26,28,30,32,34,36,38,40,42,44,-1,-1,-1,46,48,50,52,54,56,58,60,62,64,66,68,70,72,74,76,78,-1,-1,-1,-1,-1,-1,-1,-1,-1,-1,-1,-1,-1,-1,-1,-1,-1,-1,-1,-1,-1,-1,-1,-1,-1,-1,-1,-1,-1,-1,-1,-1,-1,-1],"split_conditions":[NaN,9E0,9E2,NaN,NaN,7.8E1,9.01E2,3.0420285E-1,NaN,3.0697012E-1,1.2E1,3E0,NaN,-3.1579322E-1,NaN,3E0,3E0,NaN,2.3E1,NaN,7E0,NaN,NaN,NaN,7.229E3,-3.4408537E-1,1.0837379E-1,-3.4343767E-1,NaN,1.1E1,NaN,NaN,NaN,2E0,2E0,4E0,1.6E1,3.16E2,8.13E2,2.2E2,9.7E1,NaN,6.7916E4,2.424E3,NaN,-2.7785906E-1,-4.0161446E-1,9.846173E-2,2.5340435E-1,-6.834771E-1,-1.07042745E-1,2.741498E-1,-6.7255104E-1,2.9426265E-1,2.1292152E-1,-3.2596952E-1,2.3587353E-3,-3.3427128E-1,-2.5673735E-1,-5.4418463E-2,1.4541131E-1,-1.8738955E-1,1.98696E-2,1.3673142E-1,-8.074208E-2,-6.2412675E-2,1.2836476E-1,-1.4525346E-1,-2.61434E-1,-1.8869482E-1,-1.2814453E0,3.0249488E-1,8.839083E-2,-6.258892E-2,-3.2852244E-1,5.298676E-2,-2.1980438E-1,-2.3873104E-1,-3.2341373E-1],"split_indices":[1,3,3,1,1,3,3,0,0,0,3,3,0,0,2,3,3,0,3,0,3,0,0,0,3,0,0,0,0,3,0,0,0,3,3,3,3,3,3,3,3,0,3,3,0,0,0,0,0,0,0,0,0,0,0,0,0,0,0,0,0,0,0,0,0,0,0,0,0,0,0,0,0,0,0,0,0,0,0],"split_type":[1,0,0,1,1,0,0,0,1,0,0,0,1,0,1,0,0,1,0,1,0,1,1,1,0,0,0,0,1,0,1,1,1,0,0,0,0,0,0,0,0,1,0,0,1,0,0,0,0,0,0,0,0,0,0,0,0,0,0,0,0,0,0,0,0,0,0,0,0,0,0,0,0,0,0,0,0,0,0],"sum_hessian":[1.1569873E4,3.2977085E3,8.272164E3,